{"version":"0.7.0","architecture":"SlimmableContainer","config":{"submodels":[{"max_value":0.5,"model":{"version":"0.7.0","metadata":{"date":{"year":2026,"month":5,"day":17,"hour":22,"minute":50,"second":14},"loudness":-12.17414665222168,"gain":0.6298792269436364},"architecture":"WaveNet","config":{"layers":[{"input_size":1,"condition_size":1,"head":{"out_channels":1,"kernel_size":16,"bias":true},"channels":3,"kernel_sizes":[6,6,6,6,6,6,6,6,6,6,6,6,6,6,15,15,6,6,6,6,6,6,6],"dilations":[1,3,7,17,41,101,239,1,3,7,17,41,101,239,1,13,1,3,7,17,41,101,239],"activation":[{"type":"LeakyReLU","negative_slope":0.01},{"type":"LeakyReLU","negative_slope":0.01},{"type":"LeakyReLU","negative_slope":0.01},{"type":"LeakyReLU","negative_slope":0.01},{"type":"LeakyReLU","negative_slope":0.01},{"type":"LeakyReLU","negative_slope":0.01},{"type":"LeakyReLU","negative_slope":0.01},{"type":"LeakyReLU","negative_slope":0.01},{"type":"LeakyReLU","negative_slope":0.01},{"type":"LeakyReLU","negative_slope":0.01},{"type":"LeakyReLU","negative_slope":0.01},{"type":"LeakyReLU","negative_slope":0.01},{"type":"LeakyReLU","negative_slope":0.01},{"type":"LeakyReLU","negative_slope":0.01},{"type":"LeakyReLU","negative_slope":0.01},{"type":"LeakyReLU","negative_slope":0.01},{"type":"LeakyReLU","negative_slope":0.01},{"type":"LeakyReLU","negative_slope":0.01},{"type":"LeakyReLU","negative_slope":0.01},{"type":"LeakyReLU","negative_slope":0.01},{"type":"LeakyReLU","negative_slope":0.01},{"type":"LeakyReLU","negative_slope":0.01},{"type":"LeakyReLU","negative_slope":0.01}],"bottleneck":3,"head1x1":{"active":false,"out_channels":1,"groups":1},"layer1x1":{"active":true,"groups":1},"groups_input":1,"groups_input_mixin":1,"conv_pre_film":{"active":false,"shift":true,"groups":1},"conv_post_film":{"active":false,"shift":true,"groups":1},"input_mixin_pre_film":{"active":false,"shift":true,"groups":1},"input_mixin_post_film":{"active":false,"shift":true,"groups":1},"activation_pre_film":{"active":false,"shift":true,"groups":1},"activation_post_film":{"active":false,"shift":true,"groups":1},"layer1x1_post_film":{"active":false,"shift":true,"groups":1},"head1x1_post_film":{"active":false,"shift":true,"groups":1},"gating_mode":["none","none","none","none","none","none","none","none","none","none","none","none","none","none","none","none","none","none","none","none","none","none","none"],"secondary_activation":[null,null,null,null,null,null,null,null,null,null,null,null,null,null,null,null,null,null,null,null,null,null,null],"slimmable":null}],"head":null,"head_scale":0.013119162069029721},"weights":[-2.2014312744140625,-2.3644347190856934,4.10330057144165,0.013875482603907585,0.15356875956058502,0.3278008699417114,0.13442133367061615,-0.4063030779361725,-1.0289421081542969,0.20730212330818176,0.11322535574436188,0.3868657350540161,0.10031043738126755,-0.31691259145736694,-1.0278282165527344,-0.12845806777477264,-0.3099781572818756,-0.272651731967926,-0.056800853461027145,0.4446815252304077,1.354359745979309,0.15971176326274872,0.08661764115095139,-0.10098310559988022,0.18293239176273346,0.05380669981241226,0.23948296904563904,0.09054432064294815,-0.08613887429237366,-0.1300751268863678,0.15587326884269714,0.11223623901605606,0.19360223412513733,-0.16403675079345703,0.16310861706733704,-0.007865854538977146,0.08529536426067352,-0.34021446108818054,-0.3202733099460602,-0.16050001978874207,-0.15973332524299622,-0.1709902435541153,-0.2039112001657486,0.23347772657871246,0.7998841404914856,-0.15269169211387634,-0.08793331682682037,-0.39089450240135193,-0.1976887583732605,0.25692084431648254,0.9227266311645508,0.254395455121994,0.1028246060013771,0.2839694321155548,0.2400667518377304,-0.27344000339508057,-1.0547384023666382,1.6182467937469482,1.2084239721298218,1.7490651607513428,1.002180814743042,-0.7275207042694092,-1.1934421062469482,-0.25818192958831787,0.43737220764160156,0.17171142995357513,-0.3276022970676422,0.5688443779945374,0.4970926344394684,0.39238572120666504,0.3128047585487366,-0.44379669427871704,0.04468515142798424,0.41651737689971924,0.29364076256752014,-0.04451122134923935,-0.028112323954701424,-0.02097748965024948,-0.012702057138085365,0.06268917769193649,-0.16147184371948242,-0.29312142729759216,-0.09629882127046585,-0.02723022736608982,0.06206013262271881,0.16032196581363678,0.05538935586810112,0.23848466575145721,-0.27474716305732727,-0.33876675367355347,-0.033302415162324905,-0.10256210714578629,-0.1081211045384407,0.11435101181268692,0.2447659820318222,0.2783104181289673,0.2373391091823578,-0.159987673163414,-0.5479333996772766,0.2566385269165039,0.18790094554424286,0.2716050148010254,0.1309361457824707,0.18553760647773743,-0.14580664038658142,-0.014284756034612656,-0.09840688854455948,-0.16540786623954773,0.11237860471010208,0.14221222698688507,0.9043796062469482,-0.0736541599035263,-0.20429277420043945,0.09105397015810013,-0.04670644924044609,0.09283225983381271,0.4834168255329132,0.2033672034740448,-0.05711207911372185,-0.038311850279569626,-0.164163738489151,-0.08022404462099075,0.13044373691082,0.2241334766149521,0.4343363344669342,0.3230689465999603,0.26705202460289,0.26982206106185913,-0.20042891800403595,-0.05943610146641731,0.23236514627933502,0.2435539811849594,0.08832674473524094,1.2771165370941162,-0.19556638598442078,0.14746785163879395,0.06528852134943008,-0.07936146855354309,-0.4645145833492279,-0.6456254720687866,0.2770215570926666,0.003341606119647622,0.31739142537117004,-0.09175405651330948,-0.47012990713119507,-0.13660883903503418,0.20460069179534912,-0.10530567914247513,0.09297942370176315,0.5133674144744873,0.45620226860046387,0.4208831787109375,-0.32265979051589966,-0.03083098866045475,-0.00627914909273386,-0.05858776718378067,-0.11458605527877808,-0.10568328201770782,-0.38585251569747925,-0.056530069559812546,0.05505377799272537,0.030275659635663033,-0.38001692295074463,-0.5056266188621521,0.22018752992153168,-0.07126032561063766,-0.20173831284046173,-0.3261547386646271,-0.359453409910202,-0.015088825486600399,0.42483004927635193,-0.018563169986009598,-0.043394844979047775,0.0406346395611763,0.08621232956647873,0.053887128829956055,0.32103431224823,-0.034591853618621826,-0.04755638167262077,0.15458261966705322,0.3090440034866333,0.37724411487579346,-0.4374990463256836,0.2141016125679016,0.13493311405181885,0.26272568106651306,0.33496421575546265,0.15733586251735687,-0.5267455577850342,0.0708104819059372,0.04849817976355553,0.03587888926267624,-0.07463464140892029,0.001113251899369061,-0.030115514993667603,0.101874940097332,-0.028080172836780548,-0.11411042511463165,-0.0713108479976654,-0.10225676000118256,0.5586898326873779,-0.36880797147750854,0.23473967611789703,0.22187674045562744,-0.08366920053958893,-0.39052024483680725,0.5241316556930542,0.3194989562034607,-0.29806801676750183,0.2259378880262375,-0.8656169176101685,0.6054820418357849,-1.0572688579559326,0.10955116152763367,0.05774696171283722,0.19563937187194824,0.34555792808532715,0.3106386959552765,0.3284628391265869,0.1351257860660553,0.0653991848230362,0.056746706366539,0.115949347615242,-0.5801233649253845,-0.11422739923000336,0.07654698938131332,0.060470253229141235,0.014784484170377254,0.03117985650897026,0.05313900113105774,-0.3193320333957672,0.197667196393013,0.15637464821338654,0.019759058952331543,0.1039513498544693,0.4362679123878479,-0.008409534581005573,-0.11793550103902817,-0.14007437229156494,-0.1831897646188736,-0.01337550487369299,0.24091477692127228,0.1191105768084526,-0.04455364868044853,-0.08310576528310776,-0.08645974844694138,-0.06507641822099686,-0.05547230318188667,-0.7532620429992676,-0.12714485824108124,-0.21965573728084564,-0.2249358892440796,-0.1996520459651947,-0.3197749853134155,-0.08810564875602722,0.1319267600774765,0.20888161659240723,0.15505792200565338,-0.06444970518350601,-0.6391368508338928,0.16648919880390167,0.02057655341923237,0.043972697108983994,0.07323552668094635,0.05857202410697937,-0.05138305202126503,0.5299592614173889,0.0357242152094841,0.06755470484495163,0.1893053948879242,0.170505091547966,0.1796083301305771,-0.14555144309997559,0.17707335948944092,-0.38982537388801575,0.22848962247371674,-0.08042185008525848,-0.07579585909843445,-0.3839818835258484,-0.21525897085666656,-0.049253564327955246,0.23048636317253113,0.4585550129413605,0.6998566389083862,0.5793481469154358,-0.11139228194952011,-0.23135340213775635,-0.2864333987236023,-0.04127928987145424,-0.24587275087833405,0.17506276071071625,-0.024926166981458664,-0.09200415760278702,-0.09672544151544571,0.0023581082932651043,0.0559343658387661,0.20842275023460388,0.03211093321442604,0.04095561057329178,0.09505100548267365,0.08572191745042801,0.011949539184570312,-0.5728508830070496,0.0651869848370552,0.07643463462591171,0.18087291717529297,0.20300918817520142,-0.021814070641994476,0.33623814582824707,0.023220300674438477,0.09634418785572052,0.08783882111310959,0.03317289054393768,-0.013059227727353573,-0.14349544048309326,0.003293004585430026,-0.0003971911792177707,0.01377302035689354,0.004187173675745726,-0.00927561055868864,-0.10491470247507095,0.011596589349210262,0.004819414112716913,0.0596567839384079,0.025614546611905098,0.00022714523947797716,-0.2966059744358063,0.08415508270263672,-0.0512981191277504,-0.027162181213498116,-0.030133729800581932,-0.06166153401136398,0.14925351738929749,0.01606331579387188,-0.01696416363120079,-0.014036207459867,-0.04851203411817551,0.011458122171461582,-0.051346227526664734,0.07395359128713608,0.004695982672274113,0.06185265630483627,-0.04176633805036545,0.027011973783373833,0.27004680037498474,0.2184954732656479,0.08525806665420532,-0.04840027168393135,0.06630273163318634,-0.03354614973068237,0.12632602453231812,-0.020363574847579002,0.16040000319480896,-0.24998949468135834,-0.6133416891098022,0.3964405357837677,-0.08699718117713928,-0.05510358512401581,0.030894216150045395,-0.13260945677757263,-0.38290613889694214,-0.04843368008732796,0.541000485420227,0.019082050770521164,0.007336693350225687,-0.0015728918369859457,-0.05935760587453842,-0.14012505114078522,0.007425954565405846,-0.007963333278894424,-0.007962853647768497,-0.0028553702868521214,-0.016793249174952507,-0.014149646274745464,-0.6677324175834656,-0.029075751081109047,-0.027568113058805466,-0.020008312538266182,-0.08829547464847565,-0.12561483681201935,-0.2089890092611313,-0.0086365332826972,-0.02048121578991413,-0.04040398448705673,-0.07442653924226761,-0.11849841475486755,0.5839603543281555,-0.005353859625756741,-0.012812442146241665,-0.004449067171663046,-0.023512255400419235,-0.012884330004453659,-0.486892431974411,-0.029179057106375694,-0.03881366550922394,-0.018658852204680443,-0.11640860885381699,-0.05758708715438843,-0.02758430503308773,0.010116863064467907,0.03526017814874649,0.0957784578204155,0.18534670770168304,0.34974345564842224,-0.2780730426311493,0.009035254828631878,0.005115012172609568,0.00764759024605155,0.04431099444627762,0.010754058137536049,0.010473896749317646,0.027558807283639908,0.020677799358963966,0.045722510665655136,0.18427978456020355,0.20525576174259186,0.15279117226600647,-0.27704840898513794,-0.09763302654027939,0.1571602076292038,-0.06785169988870621,-0.12322850525379181,-0.04365439713001251,0.025742774829268456,-0.087237149477005,0.16346365213394165,1.0164475440979004,-0.3515949845314026,0.3112505078315735,-0.3225294351577759,-0.018905742093920708,-0.39615869522094727,-0.16421464085578918,-0.3041362762451172,0.3561646640300751,-0.02584652788937092,-0.03723614662885666,-0.0378250852227211,-0.043828085064888,-0.033122528344392776,-0.05960679054260254,-0.0123366117477417,-0.016761887818574905,-0.017051242291927338,-0.018122490495443344,-0.013254676945507526,-0.0065485830418765545,-0.06753022223711014,-0.08714424818754196,-0.07974662631750107,-0.10276509821414948,-0.08740398287773132,0.3400799334049225,-0.04502898454666138,-0.05914813652634621,-0.027337580919265747,-0.029985355213284492,-0.041764311492443085,-0.3453563153743744,-0.019694466143846512,-0.02872847020626068,-0.014559841714799404,-0.01689673773944378,-0.018111858516931534,0.1508011817932129,-0.10746829211711884,-0.14647206664085388,-0.07456900924444199,-0.09562823921442032,-0.06073016673326492,0.03304087743163109,0.0030416434165090322,0.01756305620074272,-0.005867429543286562,-0.0070260995998978615,0.09984858334064484,0.027783868834376335,0.0008591634687036276,0.005053444765508175,-0.0029418659396469593,-0.006573853082954884,-0.02672344446182251,0.4023105800151825,0.0064987437799572945,0.02932850830256939,-0.0160983819514513,-0.03192165121436119,-0.07437776029109955,0.24474897980690002,-0.2958236038684845,-0.3867059350013733,0.0019733794033527374,0.27910539507865906,0.07492859661579132,0.08461777120828629,-0.06402987986803055,-0.13830603659152985,0.09749722480773926,-0.22630615532398224,0.3731735348701477,0.22992894053459167,-0.34267500042915344,-0.5737828016281128,-0.4918070137500763,-0.45648831129074097,0.05826294422149658,0.420463889837265,0.16099809110164642,0.06086291745305061,-0.015186207368969917,0.03053053840994835,0.09299395978450775,0.17543672025203705,-0.1887088567018509,-0.0016415286809206009,0.08831943571567535,0.17218364775180817,0.21438223123550415,-0.25929197669029236,-0.32457491755485535,0.05628906562924385,0.023955170065164566,-0.09208360314369202,0.04444421827793121,0.03765854611992836,-0.022934360429644585,0.2666116952896118,-0.11071984469890594,-0.14637991786003113,-0.2116205096244812,-0.15522781014442444,0.032325442880392075,0.30661794543266296,0.034208860248327255,-0.05703316628932953,0.035322047770023346,-0.10946434736251831,-0.06372347474098206,0.1628868728876114,0.2534482777118683,0.055746499449014664,-0.07275748252868652,0.2312823385000229,-0.102630615234375,-0.15631455183029175,-0.24276049435138702,0.02730661630630493,0.06320495158433914,0.21693485975265503,0.0053083705715835094,0.05945627763867378,0.0044203768484294415,0.14401677250862122,0.6592717170715332,0.6577001810073853,0.06053007394075394,0.033865492790937424,0.0725623071193695,0.24501881003379822,-0.06038414686918259,0.16380807757377625,-0.09601780027151108,-0.060286134481430054,0.2112821340560913,-0.005282821599394083,0.2468477487564087,-0.6443699598312378,-0.4285217225551605,0.19263726472854614,0.6201222538948059,-0.17815150320529938,-0.4198221266269684,0.7243912220001221,0.5521109700202942,-0.28732725977897644,-0.042256489396095276,-0.15002775192260742,-0.37756964564323425,0.6629250645637512,0.1854286789894104,0.11356539279222488,0.17620515823364258,0.21373027563095093,-0.22099517285823822,-0.15375979244709015,-0.05918728932738304,0.011076151393353939,-0.04833417013287544,-0.04595540091395378,-0.2917470335960388,-0.13568267226219177,0.22090356051921844,0.1213298961520195,0.18485966324806213,0.21171437203884125,0.3657015562057495,0.05172756686806679,-0.17758505046367645,-0.18795205652713776,-0.1028355211019516,-0.06293430179357529,-0.006775418296456337,-0.23636171221733093,0.08007046580314636,0.05864149332046509,0.07869783788919449,0.12085473537445068,0.24944719672203064,0.16303913295269012,0.21768684685230255,0.08480014652013779,-0.022742707282304764,0.19164447486400604,0.15293581783771515,0.09564486891031265,0.19310149550437927,0.06410381197929382,0.09536483138799667,0.045794595032930374,-0.02825321815907955,-0.08688146620988846,-0.06949115544557571,-0.028912706300616264,-0.10171185433864594,0.02747916989028454,-0.3905165493488312,0.014015856198966503,0.04064818099141121,0.09153930842876434,0.1189781203866005,0.2024744749069214,0.25191307067871094,0.13821421563625336,0.2617477774620056,0.1649087518453598,0.1616164743900299,-0.13608133792877197,-0.25968968868255615,-0.03105182945728302,0.31666168570518494,-0.005689946934580803,0.15644478797912598,-0.5720689296722412,0.11084175854921341,-0.3403335213661194,-0.40763193368911743,0.26767855882644653,-0.441596657037735,0.2859145402908325,-0.5444028377532959,0.29211774468421936,-0.07738512754440308,-0.1804807186126709,-0.02522926777601242,-0.09450779855251312,-0.13646376132965088,0.29535430669784546,0.040519386529922485,0.04803149029612541,0.02461175061762333,0.016729354858398438,0.07254209369421005,-0.28055301308631897,-0.1413072645664215,-0.19903384149074554,-0.14780324697494507,-0.11357695609331131,-0.21471437811851501,-0.3246343433856964,-0.0510096475481987,-0.08354977518320084,0.12729278206825256,-0.10149084031581879,-0.05479840934276581,0.16306541860103607,-0.015471145510673523,-0.007160392589867115,-0.15260739624500275,-0.11011581867933273,-0.2112150341272354,0.1642652153968811,-0.041242215782403946,0.07066415250301361,0.22906073927879333,-0.012592502869665623,0.03516409546136856,0.00900303479284048,-0.06584323942661285,-0.03831200301647186,-0.21301425993442535,0.04159072786569595,-0.008085627108812332,0.12950187921524048,0.01966777630150318,0.007433672901242971,0.049937669187784195,-0.015088389627635479,0.009842945262789726,-0.3282533288002014,-0.044814977794885635,-0.02022007293999195,-0.16136394441127777,-0.0007228617905639112,0.025680389255285263,-0.4317805767059326,-0.2836703658103943,0.21167778968811035,-0.17584557831287384,-0.03210986778140068,0.007393332198262215,0.06711545586585999,-0.29140788316726685,0.09494075179100037,0.060016632080078125,0.6892462968826294,-0.12644565105438232,0.5437824726104736,0.3083539605140686,-0.09905592352151871,-0.07869111746549606,0.1842239499092102,0.11328814923763275,0.473525732755661,0.0931219682097435,0.04723215475678444,-0.00942918099462986,0.12776996195316315,0.10211355239152908,-0.13509821891784668,-0.026894384995102882,-0.003409402910619974,0.021159030497074127,-0.025657540187239647,0.03933345153927803,-0.10009203106164932,0.019600436091423035,0.009639068506658077,-0.0657072588801384,0.1254866123199463,0.0225848201662302,0.10728231817483902,-0.01374603621661663,-0.07630118727684021,0.11476660519838333,-0.0681256502866745,0.12623153626918793,-0.3740171790122986,-0.006826187949627638,0.02012096345424652,-0.039208441972732544,0.034855764359235764,-0.021081412211060524,-0.08178651332855225,0.04184757545590401,-0.02104531228542328,0.12483389675617218,-0.037485286593437195,0.12625505030155182,0.4177972674369812,0.005522859748452902,0.05570603534579277,0.12235534191131592,0.04680335894227028,0.29607969522476196,-0.28425854444503784,-0.0033091583754867315,-0.02145201526582241,-0.042982712388038635,-0.0012671989388763905,-0.07852332293987274,-0.3635716736316681,0.011116636916995049,0.06510531157255173,0.11740104854106903,-0.0036171970423310995,0.3098653554916382,0.17680472135543823,-0.05556192621588707,0.11135676503181458,0.09721453487873077,0.05879608169198036,-0.03277534246444702,-0.07436835020780563,-0.1520647257566452,0.0529743954539299,-0.09556834399700165,-0.3573068380355835,-0.4127682149410248,-0.5504496097564697,-0.058370739221572876,0.06758173555135727,-0.41957026720046997,0.5789896249771118,-0.5567089915275574,0.02437531016767025,0.01897905021905899,0.008736285381019115,0.13045452535152435,0.05155551806092262,0.03634728863835335,-0.07670553028583527,-0.014921480789780617,-0.0001275207760045305,-0.04321090504527092,-0.013399453833699226,-0.030683742836117744,-0.3170943856239319,0.02865612879395485,-0.02591852843761444,0.050633110105991364,0.03243114426732063,0.049704816192388535,-0.13640345633029938,-0.017414020374417305,-0.09700603038072586,-0.13105517625808716,-0.1012539342045784,-0.008842669427394867,-0.08316817134618759,0.0076532321982085705,0.026950640603899956,0.04738757014274597,0.027548838406801224,0.07576663792133331,0.05371657758951187,0.004232553765177727,-0.029722118750214577,-0.017079457640647888,-0.034212835133075714,0.0678187906742096,0.1804538369178772,-0.010413448326289654,-0.03706008940935135,-0.042372141033411026,0.005118170287460089,0.015261722728610039,-0.0745769813656807,-0.05799354612827301,0.01239084079861641,0.013459793291985989,0.0033835917711257935,-0.0006350994808599353,0.05803684517741203,0.004481020383536816,0.03986607864499092,0.06641774624586105,0.01457990426570177,0.04627985134720802,-0.014160661026835442,0.20562240481376648,0.029852863401174545,0.004694575443863869,-0.09294068068265915,-0.05241657420992851,0.006039710249751806,-0.17241093516349792,0.0891229659318924,0.1347063183784485,-0.23249280452728271,-0.10104064643383026,0.006114705931395292,-0.054887741804122925,0.1170739158987999,-0.021641410887241364,0.4166780412197113,-0.7408673167228699,-0.34534701704978943,-0.004390317015349865,-0.0133216492831707,-0.013962293975055218,-0.04001116007566452,-0.0017552917124703526,0.008528734557330608,0.03392954170703888,0.0360761359333992,0.06000314652919769,0.0953037291765213,0.039254967123270035,-0.015198169276118279,-0.13355867564678192,-0.12131726741790771,-0.20218780636787415,-0.16920284926891327,-0.24456675350666046,-0.04598214477300644,-0.06402838975191116,-0.05914926901459694,-0.11267099529504776,-0.09625673294067383,-0.018514737486839294,-0.09744048863649368,0.02030935324728489,0.02018473669886589,0.037463828921318054,0.03457596153020859,0.006644686684012413,0.825168788433075,-0.03622704744338989,-0.035193800926208496,-0.05690038949251175,-0.07324764132499695,-0.03475940600037575,0.07583461701869965,-0.07657330483198166,-0.08096276968717575,-0.1342262625694275,-0.16198377311229706,-0.19149421155452728,-0.43036723136901855,0.02622113563120365,0.02749551460146904,0.04527297616004944,0.05606325343251228,0.06924230605363846,-0.3003419041633606,-0.034038741141557693,-0.035073067992925644,-0.06426286697387695,-0.06528802216053009,-0.08003722876310349,-0.6930965781211853,-0.032366540282964706,-0.42031794786453247,-0.5722066760063171,0.0567447692155838,0.38014471530914307,-0.029751446098089218,-0.1923818439245224,-0.456892192363739,0.11181174218654633,0.1238681897521019,-1.2726902961730957,0.7340671420097351,0.16623497009277344,0.0877658799290657,0.6717463135719299,0.09809945523738861,0.11721499264240265,0.24386271834373474,-0.0468749925494194,-0.092890165746212,-0.06576604396104813,-0.11520735174417496,-0.02461431920528412,-0.08256372809410095,-0.004163934849202633,-0.0200889240950346,0.00592941464856267,-0.021959252655506134,0.032569244503974915,-0.035753559321165085,0.0015350664034485817,0.06677763164043427,-0.0041939979419112206,0.06927374005317688,-0.05020373314619064,0.05175931379199028,-0.024826476350426674,-0.018296018242836,-0.011916188523173332,-0.018089836463332176,-0.015844322741031647,-0.016764501109719276,0.001426394795998931,0.006738968193531036,0.0193238016217947,0.03287462517619133,0.005511725787073374,0.0040188804268836975,-0.009849431924521923,-0.008338280022144318,0.004751404281705618,0.011433483101427555,0.0008858044166117907,-0.0023382750805467367,-0.0011220235610380769,-0.0036734105087816715,-0.0037256337236613035,-0.0031578040216118097,-0.004243722651153803,-0.0014916519867256284,0.012692187912762165,0.0043168445117771626,0.00796261802315712,0.007874337024986744,0.009626087732613087,0.009238019585609436,-0.0077214716002345085,-0.0023708934895694256,-0.0053356848657131195,-0.007169315591454506,-0.008372701704502106,-0.01434654463082552,-0.0124212009832263,-0.00593726197257638,-0.0014124347362667322,0.014019911177456379,-0.0015306307468563318,-0.0009815986268222332,0.018811382353305817,0.004848717246204615,-0.0023553117644041777,0.13777117431163788,0.010609139688313007,-0.0008198893629014492,0.04232117533683777,0.01120645273476839,-0.003369665704667568,0.057212989777326584,0.2081596553325653,-0.06718017905950546,0.17269113659858704,0.009713338688015938,-0.03404852747917175,0.08491694927215576,0.11330597847700119,0.041843436658382416,0.045436955988407135,0.1359654664993286,-0.01210862398147583,0.10351971536874771,-0.09000325947999954,-0.13927295804023743,-0.15863150358200073,0.22291485965251923,0.03032924234867096,0.01198500581085682,-0.056901611387729645,0.022123921662569046,-0.010731500573456287,-0.051212161779403687,0.012613601051270962,0.02941378764808178,0.02553156204521656,0.1221400648355484,-0.07341241836547852,-0.5046965479850769,-0.6048814654350281,-0.47892361879348755,-0.15346777439117432,-0.03878682106733322,-0.0584254264831543,0.015974368900060654,0.15863056480884552,0.05177295580506325,-0.01242576353251934,-0.05994808301329613,0.10977894812822342,0.03320879116654396,0.039395589381456375,0.10629669576883316,0.058564599603414536,0.10299590975046158,0.03876424953341484,-0.12510058283805847,-0.05931894853711128,0.18011242151260376,0.0008341691573150456,0.0009805859299376607,0.16798320412635803,0.06688108295202255,0.029469454661011696,0.2033063918352127,0.24847964942455292,0.06179556995630264,-0.002073288196697831,-0.1087300106883049,0.10886983573436737,0.12217050790786743,-0.004577497951686382,-0.05989358201622963,-0.14923034608364105,-0.03575071692466736,0.05595117062330246,-0.08653093129396439,-0.0018496819538995624,0.011525840498507023,-0.02607526071369648,-0.09662096947431564,-0.004074508789926767,-0.15243199467658997,-0.015339260920882225,0.38580283522605896,0.5369555354118347,-0.015834636986255646,-0.28406691551208496,0.1948232203722,0.03356671333312988,0.04813729599118233,0.05075075104832649,0.06731343269348145,0.08344151824712753,0.015106960199773312,0.04820121079683304,0.12462487816810608,0.1424451470375061,-0.00261193560436368,0.15644453465938568,0.3097437620162964,0.21650174260139465,0.09976957738399506,-0.004249217454344034,-0.03585461899638176,-0.13884197175502777,0.03310080245137215,0.025318201631307602,0.01099180243909359,-0.0360720194876194,-0.06428101658821106,0.03864077851176262,0.07165437191724777,-0.017714744433760643,-0.1632019430398941,-0.06779570877552032,-0.02947402000427246,-0.0844537764787674,0.08557608723640442,-0.007783283945173025,-0.053134895861148834,-0.11975040286779404,-0.12594766914844513,-0.1929493397474289,-0.0352880097925663,0.04859646409749985,0.04121916741132736,0.09053142368793488,-0.13254739344120026,-0.13205386698246002,-0.1608976274728775,-0.12032034993171692,0.1704205572605133,-0.0199842881411314,0.06420713663101196,0.04240137338638306,0.026440057903528214,0.08491645008325577,0.06401057541370392,0.09507822245359421,0.004296616185456514,0.07048927247524261,0.13774053752422333,0.12633119523525238,0.05486954748630524,0.08617448061704636,0.028352098539471626,0.05629890784621239,0.2628430426120758,0.27364468574523926,0.12121216952800751,-0.02701500989496708,-0.10187099128961563,-0.0019906789530068636,0.08286310732364655,-0.5924199819564819,-0.06184062361717224,0.2982446849346161,-0.03407451510429382,-0.1747429519891739,-0.5763257145881653,0.637191653251648,-0.17938430607318878,-0.04755958169698715,0.038731761276721954,-0.6143099665641785,0.059068404138088226,0.11320030689239502,0.16534854471683502,0.11437245458364487,0.10673084110021591,0.07022818177938461,0.003832305548712611,0.05411868914961815,0.022144947201013565,0.05946105346083641,-0.011302797123789787,0.08274678140878677,0.1359892636537552,-0.17296907305717468,0.3382267951965332,0.01912323758006096,-0.029805863276124,-0.019274523481726646,-0.0012285838602110744,-0.05631855130195618,0.029644066467881203,-0.06144419312477112,0.0773959681391716,0.04722733423113823,0.013274071738123894,0.056786246597766876,-0.0013954784953966737,0.23763790726661682,0.008414988406002522,-0.41124045848846436,0.03231858089566231,0.10895248502492905,0.06642306596040726,0.06283331662416458,0.09885290265083313,0.028784483671188354,0.03015569970011711,0.07237100601196289,0.02827944979071617,0.08045416325330734,0.06920401751995087,0.07699686288833618,0.22619569301605225,0.47617295384407043,-0.535832405090332,0.01129608228802681,-0.04972101375460625,-0.08959131687879562,-0.05961409956216812,-0.1049358919262886,-0.16627180576324463,-0.08263284713029861,-0.16013680398464203,-0.13960857689380646,-0.14504225552082062,-0.07391935586929321,-0.0669969916343689,-0.06543442606925964,0.2150854617357254,-0.2799462080001831,-0.07504361867904663,0.002481478499248624,-0.019103670492768288,-0.028899382799863815,0.013751109130680561,-0.02258693426847458,0.08810557425022125,-0.04907526448369026,-0.036649320274591446,-0.016108041629195213,-0.026935124769806862,-0.012373811565339565,-0.22196374833583832,-0.08736121654510498,0.246938094496727,0.0024825208820402622,-0.0693335086107254,-0.03585716709494591,-0.030721642076969147,-0.07896463572978973,-0.04599202796816826,-0.054013997316360474,-0.10336010158061981,-0.05640396103262901,-0.09523042291402817,-0.09239568561315536,-0.052691757678985596,-0.18009594082832336,-0.4294753968715668,0.5425381064414978,-0.0372757725417614,-0.047823864966630936,-0.0104625029489398,-0.004671900998800993,-0.03973732516169548,-0.0021263654343783855,-0.023855945095419884,-0.0789547860622406,-0.10577692836523056,-0.08959463983774185,-0.03843184560537338,-0.06384005397558212,0.1419914811849594,-0.038728974759578705,0.1009673923254013,0.019970932975411415,0.04192150756716728,0.023478630930185318,0.013865449465811253,0.036482445895671844,0.021509593352675438,0.01584126614034176,0.055049218237400055,0.05191134288907051,0.05466006323695183,0.04351736977696419,0.02834985964000225,-0.022774936631321907,-0.013348772190511227,0.8476651310920715,-0.016304010525345802,-0.013945184648036957,-0.012984920293092728,-0.0027163932099938393,-0.012388846836984158,-0.005535949487239122,-0.0092982342466712,-0.02955726906657219,-0.04773883521556854,-0.02991931512951851,-0.01802026852965355,-0.02324429713189602,0.05831553786993027,-0.03732339292764664,0.24632878601551056,-0.05545299872756004,-0.017101304605603218,-0.1755329966545105,-0.011509559117257595,-0.021610479801893234,-0.07784798741340637,-0.07508524507284164,0.10352034121751785,0.7073677182197571,0.07185958325862885,-0.053868044167757034,0.27208173274993896,0.24398355185985565,-0.2285347580909729,0.2912147045135498,0.5949616432189941,-0.08625003695487976,-0.45112931728363037,0.5575506091117859,-0.3293210566043854,-0.7460311651229858,-0.293647825717926,0.6017194390296936,0.15850253403186798,0.47176310420036316,-0.6422329545021057,-0.5851084589958191,0.1897549033164978,0.04001835361123085,0.607490062713623,0.31152766942977905,-0.31967270374298096,0.014013879932463169,0.10590489953756332,-0.03616946563124657,-0.12072359025478363,0.07594557851552963,0.03325088322162628,-0.20154978334903717,-0.170691579580307,0.3313436210155487,-0.15262366831302643,0.18364350497722626,0.09518761932849884,-0.3837544620037079,0.38900402188301086,0.4690322279930115,-0.21908485889434814,0.06534942984580994,-0.09507252275943756,-0.10922722518444061,-0.05699625611305237,-0.031187966465950012,0.08619870245456696,0.1474815160036087,0.09033043682575226,-0.04655039682984352,-0.18047496676445007,-0.12387923151254654,0.26619669795036316,-0.16795149445533752,-0.12015614658594131,-0.37688353657722473,-0.28292834758758545,0.07180991023778915,0.9948890805244446,0.08901812136173248,0.16902439296245575,0.09275513887405396,0.0014691996620967984,0.005647479090839624,-0.3428989052772522,-0.31666532158851624,-0.4016331136226654,0.1796700656414032,-0.1153717190027237,-0.02604624256491661,0.21946120262145996,0.6540656089782715,0.1338268518447876,-0.1489035189151764,1.1311229467391968,0.9888778328895569,-0.9279384613037109,-0.6369128823280334,-0.2257556915283203,0.916847288608551,0.7586669921875,0.29432398080825806,-0.361706405878067,-0.006152325309813023,0.09592199325561523,0.19373579323291779,0.08641296625137329,0.10175519436597824,0.2515322268009186,0.014469844289124012,-0.17101824283599854,0.04422421008348465,-0.12461630254983902,-0.30275166034698486,0.5333916544914246,0.06643041968345642,0.03210492804646492,0.14926141500473022,0.07832732796669006,-0.03323187306523323,-0.5999218225479126,0.2416476309299469,0.06577883660793304,0.04328596591949463,0.11503281444311142,0.36899903416633606,0.35206255316734314,-0.14235715568065643,0.006640881299972534,-0.057446278631687164,0.015142158605158329,0.40110906958580017,-0.2773725092411041,-0.016524402424693108,0.047951750457286835,0.07167202234268188,-0.16193455457687378,0.03690257668495178,0.25288742780685425,0.04912714287638664,-0.10478393733501434,-0.08806739747524261,-0.026553120464086533,-0.19559796154499054,0.25458988547325134,-0.012580211274325848,-0.053777772933244705,-0.011997280642390251,0.0037699805106967688,-0.07730097323656082,0.9006826877593994,0.06179668381810188,-0.010403776541352272,-0.0886271744966507,0.03487853705883026,0.2578091621398926,-0.5855004191398621,0.3450313210487366,0.20694376528263092,-0.0310494527220726,0.018108515068888664,-0.07476796209812164,0.01882769726216793,0.008881991729140282,-0.33994725346565247,0.20755980908870697,0.36053040623664856,-0.4929382801055908,0.6407672166824341,-0.2640534043312073,0.0756574496626854,-0.09167305380105972,0.04820699989795685,0.12184742838144302,0.3310514986515045,0.01969449408352375,0.04393260180950165,-0.1141587421298027,0.04316375032067299,0.03724924847483635,0.4118242859840393,0.03441966697573662,0.06868327409029007,0.09885704517364502,-0.07200797647237778,-0.17254434525966644,0.46763256192207336,0.022165071219205856,0.1919018030166626,0.3366394639015198,0.3589342534542084,0.16031454503536224,-0.6433174014091492,0.04733126610517502,-0.09951262921094894,0.059655409306287766,0.004702924285084009,0.0761677622795105,-0.6042079329490662,-0.01885995641350746,-0.018688198179006577,-0.10474279522895813,0.06551960110664368,0.06703010946512222,-0.45956951379776,-0.005746491253376007,-0.17116868495941162,-0.3802606761455536,-0.2647726237773895,-0.14840957522392273,0.5841073393821716,0.03802467882633209,0.11474578827619553,0.04503820836544037,0.24843822419643402,0.016823846846818924,0.11341434717178345,-0.0008356450707651675,-0.06703321635723114,0.07848859578371048,0.024161599576473236,-0.0035771820694208145,0.22426073253154755,0.04011731222271919,-0.04321274161338806,0.14549490809440613,-0.025712233036756516,0.02366986870765686,-0.01782803423702717,0.05392251908779144,-0.08337150514125824,0.11046622693538666,-0.013644182123243809,-0.030412456020712852,0.0240046214312315,-0.07773593813180923,0.1039014607667923,-0.0958295688033104,0.01869843900203705,0.019236905500292778,0.21336813271045685,0.34422242641448975,-0.319243460893631,-0.39324823021888733,0.45094138383865356,0.02845090813934803,0.18155111372470856,-0.08651205152273178,-0.09162988513708115,-0.13530051708221436,-0.21564792096614838,-0.2328002154827118,-0.17725519835948944,0.03038480132818222,0.029090847820043564,0.06109246984124184,0.08712486177682877,0.11939854919910431,-0.13102349638938904,-0.026446377858519554,-0.02958752028644085,-0.05399693176150322,-0.01953728124499321,0.04659644141793251,-0.11446240544319153,-0.04875820502638817,0.025174353271722794,0.020836347714066505,-0.029433388262987137,0.050300247967243195,-0.8252735137939453,0.01601352170109749,-0.019899846985936165,-0.005916091613471508,-0.0032847232650965452,-0.02384144626557827,-0.47836223244667053,0.0007863653590902686,0.0023984701838344336,0.006836785469204187,0.014324359595775604,-0.09210367500782013,0.21945828199386597,-0.13566380739212036,-0.062271930277347565,-0.11334778368473053,-0.05663912370800972,-0.017131386324763298,0.06530536711215973,0.039832279086112976,0.03215375542640686,0.03897356241941452,0.03206166252493858,0.0035584254655987024,1.4705729484558105,-0.011424228549003601,-0.025117743760347366,0.017151866108179092,0.017307188361883163,-0.21890093386173248,0.0515814833343029,-0.17531372606754303,0.01111412514001131,-0.03920687735080719,0.018594130873680115,-0.07948680967092514,-0.02049228921532631,-0.0673556849360466,0.2809760570526123,0.10224907845258713,0.013941392302513123,0.13300032913684845,0.738284707069397,0.1895570307970047,-0.11416144669055939,0.20689840614795685,-0.23171168565750122,0.44691362977027893,-0.3195688724517822,-0.029310191050171852,-0.08314323425292969,-0.09653011709451675,-0.02628924697637558,-0.08270561695098877,0.10026688873767853,-0.1106480285525322,-0.006533506326377392,0.0026308593805879354,-0.02729727141559124,-0.01298778411000967,-0.23126523196697235,0.10406032204627991,0.24133187532424927,0.2280656099319458,0.20596632361412048,0.20327994227409363,-0.4009084105491638,-0.09376328438520432,0.06942594796419144,0.10149380564689636,0.13736122846603394,0.21569569408893585,0.154552161693573,0.09739657491445541,-0.0030859860125929117,-0.014125283807516098,-0.03227918967604637,-0.044040746986866,0.29667213559150696,-0.11798983812332153,-0.2397173047065735,-0.2310023307800293,-0.18406134843826294,-0.1826174557209015,0.44684505462646484,0.08694919943809509,-0.0046926033683121204,0.08368433266878128,0.08411066979169846,0.016939710825681686,0.3009517788887024,0.0032006201799958944,-0.0034124997910112143,-0.02417127601802349,-0.0254774559289217,0.01519435178488493,0.3979244530200958,-0.05322978273034096,-0.04194755479693413,-0.04148422181606293,-0.023416774347424507,-0.011169090867042542,-0.2717444896697998,-0.1014086976647377,0.08036136627197266,0.04182131960988045,0.029329003766179085,0.05583757534623146,-0.010043137706816196,-0.1464369297027588,0.11816923320293427,-0.012017850764095783,0.2589063048362732,-0.36908045411109924,-0.35938766598701477,0.8864460587501526,-0.8998825550079346,0.5013027191162109,-0.2257995903491974,0.22479185461997986,-0.0675414428114891,0.002782267052680254,-0.02724994532763958,-0.028992721810936928,-0.009121596813201904,-0.06178080290555954,0.021934743970632553,0.004436344839632511,0.026032842695713043,0.024056412279605865,0.02026424929499626,0.039798177778720856,-0.6955615878105164,0.07282725721597672,0.07608980685472488,0.12042932212352753,0.1753741204738617,0.18118061125278473,-0.5514914393424988,0.002555098617449403,0.03264492005109787,0.022012468427419662,0.07239676266908646,0.02546601928770542,-0.03030533716082573,-0.005074485670775175,-0.029462313279509544,-0.020047131925821304,-0.04671751707792282,-0.037415869534015656,0.7706627249717712,-0.07706645876169205,-0.08271367847919464,-0.13075940310955048,-0.18076038360595703,-0.2071143090724945,0.6055879592895508,0.1262311339378357,0.15871037542819977,0.07941827923059464,0.16202005743980408,0.08094903081655502,-0.04096280783414841,-0.06543227285146713,-0.09776101261377335,-0.05924657732248306,-0.09913641214370728,-0.04335082322359085,0.5658462643623352,-0.13599401712417603,-0.14157456159591675,-0.15046806633472443,-0.07188783586025238,-0.019120121374726295,0.03155511990189552,0.008467300795018673,-0.10507164150476456,-0.042841143906116486,0.0011448387522250414,-0.027831709012389183,0.009626454673707485,-0.014806988649070263,0.16584385931491852,0.28264516592025757,0.4486536681652069,-0.21796318888664246,-0.31900110840797424,0.6371962428092957,-0.6182395219802856,0.03133954480290413,0.09415530413389206,-0.045720357447862625,-0.042131002992391586,0.013573694042861462,0.02541964314877987,-0.010312024503946304,-0.03710467740893364,0.0678456723690033,0.2693142890930176,0.0008730444824323058,-0.01821768842637539,0.01374217588454485,0.04943842440843582,-0.03424232453107834,0.34124118089675903,0.021895170211791992,0.017238054424524307,0.010336000472307205,0.024893512949347496,0.04815058037638664,-0.3108771741390228,0.10412284731864929,0.0861377939581871,0.043321214616298676,0.05031534284353256,0.15001454949378967,0.14362213015556335,-0.1446680724620819,-0.11162202805280685,-0.08736463636159897,-0.09995895624160767,-0.21683676540851593,0.2091200202703476,-0.041534245014190674,-0.03841639682650566,-0.0582425557076931,-0.059896696358919144,-0.0833626240491867,0.33971959352493286,0.11230512708425522,0.0858721062541008,0.04409798979759216,0.0488688200712204,0.044027794152498245,0.31547704339027405,-0.2052435427904129,0.0705895647406578,0.07439230382442474,0.04826352745294571,0.04345687851309776,0.6741552352905273,-0.08405507355928421,0.03277426213026047,0.07917097955942154,0.03888147696852684,0.056686654686927795,-0.1785184144973755,0.07047679275274277,0.17008596658706665,0.09589804708957672,-0.0038658473640680313,0.007242206484079361,-0.00807781983166933,-7.194824032632412e-39,-1.1412282593443063e-38,1.2728917407150304e-38,7.008008526562485e-39,4.360937510572869e-39,-1.5801862644626732e-38,6.941910679298748e-39,-1.0416056074902157e-38,-1.9987167010874985e-38,-1.692427048468623e-38,-2.0657591636460372e-39,7.971978555753098e-39,-0.0007643940043635666,-7.517994527006522e-05,0.0011423630639910698,0.007460514549165964,0.013150885701179504,0.02047545649111271,0.030100321397185326,0.04066313058137894,0.05117891728878021,0.06268710643053055,0.06856943666934967,0.0640471950173378,0.050829995423555374,0.03251292183995247,0.014471824280917645,0.0029876301996409893,0.0006870522629469633,0.00227527623064816,-0.0012763356789946556,-0.004584061913192272,-0.012437601573765278,-0.019491909071803093,-0.02720937691628933,-0.03773266077041626,-0.0506129115819931,-0.06274384260177612,-0.07136803865432739,-0.07072915881872177,-0.05693242698907852,-0.036609478294849396,-0.017761869356036186,-0.00528827914968133,-0.0014733538264408708,0.0016680218977853656,-0.0017726797377690673,0.0025163134559988976,0.00026513051125220954,0.0019456174923107028,0.0020801671780645847,0.0008694561547599733,0.0009016917319968343,0.0036132519599050283,0.0037702464032918215,0.006309461314231157,0.01314935926347971,0.01287764497101307,0.0050207204185426235,-0.0003493284457363188,-0.01819089613854885,0.013119162060320377],"sample_rate":48000.0}},{"max_value":1.0,"model":{"version":"0.7.0","metadata":{"date":{"year":2026,"month":5,"day":17,"hour":9,"minute":1,"second":28},"loudness":-12.049386978149414,"gain":0.612789648007463},"architecture":"WaveNet","config":{"layers":[{"input_size":1,"condition_size":1,"head":{"out_channels":1,"kernel_size":16,"bias":true},"channels":8,"kernel_sizes":[6,6,6,6,6,6,6,6,6,6,6,6,6,6,15,15,6,6,6,6,6,6,6],"dilations":[1,3,7,17,41,101,239,1,3,7,17,41,101,239,1,13,1,3,7,17,41,101,239],"activation":[{"type":"LeakyReLU","negative_slope":0.01},{"type":"LeakyReLU","negative_slope":0.01},{"type":"LeakyReLU","negative_slope":0.01},{"type":"LeakyReLU","negative_slope":0.01},{"type":"LeakyReLU","negative_slope":0.01},{"type":"LeakyReLU","negative_slope":0.01},{"type":"LeakyReLU","negative_slope":0.01},{"type":"LeakyReLU","negative_slope":0.01},{"type":"LeakyReLU","negative_slope":0.01},{"type":"LeakyReLU","negative_slope":0.01},{"type":"LeakyReLU","negative_slope":0.01},{"type":"LeakyReLU","negative_slope":0.01},{"type":"LeakyReLU","negative_slope":0.01},{"type":"LeakyReLU","negative_slope":0.01},{"type":"LeakyReLU","negative_slope":0.01},{"type":"LeakyReLU","negative_slope":0.01},{"type":"LeakyReLU","negative_slope":0.01},{"type":"LeakyReLU","negative_slope":0.01},{"type":"LeakyReLU","negative_slope":0.01},{"type":"LeakyReLU","negative_slope":0.01},{"type":"LeakyReLU","negative_slope":0.01},{"type":"LeakyReLU","negative_slope":0.01},{"type":"LeakyReLU","negative_slope":0.01}],"bottleneck":8,"head1x1":{"active":false,"out_channels":1,"groups":1},"layer1x1":{"active":true,"groups":1},"groups_input":1,"groups_input_mixin":1,"conv_pre_film":{"active":false,"shift":true,"groups":1},"conv_post_film":{"active":false,"shift":true,"groups":1},"input_mixin_pre_film":{"active":false,"shift":true,"groups":1},"input_mixin_post_film":{"active":false,"shift":true,"groups":1},"activation_pre_film":{"active":false,"shift":true,"groups":1},"activation_post_film":{"active":false,"shift":true,"groups":1},"layer1x1_post_film":{"active":false,"shift":true,"groups":1},"head1x1_post_film":{"active":false,"shift":true,"groups":1},"gating_mode":["none","none","none","none","none","none","none","none","none","none","none","none","none","none","none","none","none","none","none","none","none","none","none"],"secondary_activation":[null,null,null,null,null,null,null,null,null,null,null,null,null,null,null,null,null,null,null,null,null,null,null],"slimmable":null}],"head":null,"head_scale":0.013119162069029721},"weights":[-2.708199977874756,1.518722653388977,2.0678908824920654,-1.4746893644332886,1.8213872909545898,1.583485722541809,0.43026724457740784,-2.332751750946045,0.010750990360975266,0.011915381997823715,0.011935512535274029,0.016323460265994072,0.01673297770321369,0.017248285934329033,-0.008671868592500687,-0.009857114404439926,-0.009906550869345665,-0.013710119761526585,-0.013825307600200176,-0.013919103890657425,-0.009980551898479462,-0.011135874316096306,-0.01124157290905714,-0.015299483202397823,-0.015604638494551182,-0.015871070325374603,0.008626227267086506,0.009722459129989147,0.009800530038774014,0.013623515143990517,0.013611781410872936,0.013682014308869839,-0.009396251291036606,-0.010530810803174973,-0.010661841370165348,-0.014683360233902931,-0.01494394987821579,-0.01524931937456131,-0.008933411911129951,-0.009977768175303936,-0.010045178234577179,-0.01389186829328537,-0.014010310173034668,-0.014149187132716179,-0.003665241878479719,-0.004495521076023579,-0.00490069342777133,-0.007277719676494598,-0.006902802269905806,-0.006552433595061302,0.010334426537156105,0.011462384834885597,0.01152486726641655,0.015768369659781456,0.016090799123048782,0.016407733783125877,-0.22126078605651855,-0.16176877915859222,-0.09408030658960342,-0.24135459959506989,-0.3601699769496918,-0.5376079678535461,0.10701704025268555,0.07671711593866348,0.07630858570337296,0.1591598093509674,0.24871820211410522,0.32435551285743713,0.14989745616912842,0.14074751734733582,0.1529988795518875,0.15210354328155518,0.350324809551239,0.4424012005329132,-0.12005482614040375,-0.10728505998849869,-0.08462131023406982,-0.17147760093212128,-0.2478979080915451,-0.30178287625312805,0.13311949372291565,0.0843011885881424,0.08390852808952332,0.1688326895236969,0.35139402747154236,0.4230392873287201,0.13811549544334412,0.09212638437747955,0.05540633574128151,0.16856394708156586,0.27142223715782166,0.3446059226989746,0.041794080287218094,0.022458622232079506,0.025374339893460274,0.06077304854989052,0.09303129464387894,0.11520745605230331,-0.14149031043052673,-0.10911538451910019,-0.09488236904144287,-0.1638813465833664,-0.36184218525886536,-0.4446091651916504,0.10268570482730865,0.05700470879673958,0.06608925014734268,0.08909949660301208,0.43510472774505615,0.6243542432785034,-0.06537137925624847,-0.023880504071712494,-0.035500142723321915,-0.07227897644042969,-0.2820356786251068,-0.4140956997871399,-0.07145122438669205,-0.01178249903023243,-0.03827093914151192,-0.09420035779476166,-0.380927175283432,-0.5251759886741638,0.06906753778457642,0.022641761228442192,0.032873645424842834,0.07498612254858017,0.2867022156715393,0.41280636191368103,-0.08002938330173492,-0.03263408690690994,-0.034250929951667786,-0.07832571119070053,-0.34592801332473755,-0.4952373802661896,-0.06393209099769592,-0.029876215383410454,-0.03724568709731102,-0.0830356553196907,-0.3046635687351227,-0.4529934525489807,-0.018433447927236557,-0.005087459925562143,-0.013559828512370586,-0.027506191283464432,-0.09682443737983704,-0.14162777364253998,0.10551492869853973,0.05306422337889671,0.046254027634859085,0.08746477961540222,0.3899362087249756,0.605506181716919,0.18329885601997375,0.1554454267024994,0.1004151776432991,0.15097621083259583,0.2953614890575409,0.25351423025131226,-0.12572002410888672,-0.08539800345897675,-0.058826662600040436,-0.09593193233013153,-0.14477548003196716,-0.14708206057548523,-0.19528046250343323,-0.13524703681468964,-0.15226945281028748,-0.17342600226402283,-0.24479831755161285,-0.15947869420051575,0.12808138132095337,0.10757962614297867,0.06675813347101212,0.1200144812464714,0.14151734113693237,0.17858661711215973,-0.1383955329656601,-0.1436891108751297,-0.13082921504974365,-0.13333868980407715,-0.154122456908226,-0.14799895882606506,-0.16486220061779022,-0.07851517200469971,-0.09308408200740814,-0.13599009811878204,-0.1624670922756195,-0.17618121206760406,-0.04448150098323822,-0.02641434594988823,-0.02333538420498371,-0.03613685443997383,-0.05507902055978775,-0.06228704750537872,0.20076912641525269,0.16247287392616272,0.1400408148765564,0.12912917137145996,0.19108611345291138,0.15839475393295288,-0.005738380365073681,-0.005796929821372032,-0.0065437196753919125,-0.011671068146824837,-0.018894534558057785,-0.03450039401650429,0.002968445885926485,0.0024787806905806065,0.003163605695590377,0.007610717322677374,0.014055093750357628,0.025926558300852776,0.004077491350471973,0.0035650143399834633,0.004303657915443182,0.009375077672302723,0.016614850610494614,0.030676115304231644,-0.0029278157744556665,-0.0024051149375736713,-0.003095983760431409,-0.0074216024950146675,-0.013718685135245323,-0.025535786524415016,0.003937237896025181,0.0035400015767663717,0.004202478565275669,0.008799494244158268,0.01551251020282507,0.02878757193684578,0.0032072158064693213,0.0027412709314376116,0.003467801259830594,0.007937275804579258,0.014387133531272411,0.026693154126405716,0.0004102429957129061,-0.00017850598669610918,0.0002553259255364537,0.0019968091510236263,0.005252325441688299,0.009958280250430107,-0.0052640000358223915,-0.004946265835314989,-0.00552966445684433,-0.01036661583930254,-0.017266152426600456,-0.0319945402443409,-0.3002333641052246,-0.3285265862941742,-0.30392152070999146,0.018921317532658577,0.7487377524375916,1.3850520849227905,0.20561358332633972,0.21890433132648468,0.1611560583114624,-0.005037939641624689,-0.44345253705978394,-0.8231340646743774,0.20645084977149963,0.33162033557891846,0.21083973348140717,0.03017219714820385,-0.6196483969688416,-1.1663920879364014,-0.1683957725763321,-0.24229121208190918,-0.16351088881492615,0.030219541862607002,0.47303763031959534,0.8594751358032227,0.20772896707057953,0.26761293411254883,0.16133293509483337,-0.0037443446926772594,-0.5594484806060791,-1.0485031604766846,0.21391627192497253,0.2463735193014145,0.16063621640205383,0.010698996484279633,-0.49031826853752136,-0.8967832922935486,0.058822423219680786,0.07960306107997894,0.04207496717572212,-0.010659916326403618,-0.164829820394516,-0.2901567220687866,-0.25468313694000244,-0.3543860912322998,-0.2399986833333969,0.03583882376551628,0.7005712985992432,1.2310742139816284,0.15079627931118011,0.19553515315055847,0.20545202493667603,-0.004535813815891743,-0.42152073979377747,-0.8715760707855225,-0.12315821647644043,-0.15299226343631744,-0.10295090079307556,0.0007206678856164217,0.28835031390190125,0.5656916499137878,-0.13561491668224335,-0.23435251414775848,-0.1383228898048401,-0.0016416548751294613,0.43607795238494873,0.7610684633255005,0.14337950944900513,0.17180562019348145,0.11756827682256699,-0.013632307760417461,-0.32243847846984863,-0.6353448033332825,-0.16035152971744537,-0.1768438071012497,-0.12162724137306213,-0.002356340177357197,0.34809258580207825,0.688629686832428,-0.14408911764621735,-0.16684317588806152,-0.09970123320817947,0.010389352217316628,0.3391743004322052,0.6389474272727966,-0.04807505011558533,-0.07534753531217575,-0.03267041593790054,0.009829462505877018,0.13398373126983643,0.25002187490463257,0.16355301439762115,0.2359524816274643,0.11024220287799835,-0.008425520732998848,-0.40126949548721313,-0.8084657788276672,-0.33923885226249695,-0.2034686803817749,-0.3384210765361786,-0.15468959510326385,0.25549525022506714,0.6251497268676758,0.19193491339683533,0.16749005019664764,0.15252962708473206,0.075452521443367,-0.21181200444698334,-0.3912357985973358,0.2553708255290985,0.205717995762825,0.28056079149246216,0.05236024409532547,-0.3288089632987976,-0.5270744562149048,-0.1702525019645691,-0.24794121086597443,-0.12256213277578354,-0.0860290378332138,0.19056956470012665,0.5152596831321716,0.23062066733837128,0.2999825179576874,0.2538178265094757,0.11813925206661224,-0.30323535203933716,-0.5561526417732239,0.15190763771533966,0.26818954944610596,0.17765510082244873,0.10672548413276672,-0.23406702280044556,-0.44726863503456116,0.10495960712432861,0.08403388410806656,0.07011962682008743,0.015321205370128155,-0.10330726951360703,-0.20474499464035034,-0.2342272400856018,-0.29432612657546997,-0.2178887277841568,0.008299601264297962,0.15945352613925934,0.6278958320617676,-0.0059206229634583,-0.15397733449935913,0.13532091677188873,0.11278944462537766,-0.018226174637675285,0.21533656120300293,-0.14123910665512085,0.5734551548957825,-0.01121464092284441,0.08397475630044937,-0.39534780383110046,-0.0940430760383606,0.020442143082618713,-0.8062251210212708,0.5968456268310547,-0.21952183544635773,-0.02625054307281971,-0.14417868852615356,0.2245415598154068,-0.15881232917308807,-0.031093716621398926,0.4970831274986267,-0.6442520022392273,0.5532757043838501,0.04994813725352287,0.41248130798339844,-0.6049526333808899,-0.253282368183136,0.06892772018909454,-0.9229233264923096,1.2375531196594238,-0.011512749828398228,0.031224649399518967,0.6906029582023621,-0.1676395684480667,-0.4021105468273163,0.0452188216149807,-0.3265276253223419,0.6795313358306885,-0.12018236517906189,-0.0010329406941309571,-0.372653067111969,0.21250146627426147,-0.059256456792354584,-0.01855330914258957,-0.07623443752527237,-0.20145247876644135,-0.2121296375989914,0.019872885197401047,0.006072149146348238,-0.23188620805740356,-0.10077086836099625,-0.004281274043023586,-0.17462392151355743,0.3456522524356842,-0.31364569067955017,0.016733473166823387,0.05721651762723923,-0.5640072822570801,-0.31921935081481934,0.015499633736908436,-0.8537059426307678,0.8418593406677246,-0.44851213693618774,-0.00355526152998209,0.4454911947250366,-0.0926581472158432,-0.3453078866004944,-0.015604039654135704,0.18643637001514435,-0.42529189586639404,0.4700900912284851,-0.0383007787168026,-0.3283631503582001,0.16173234581947327,0.09336846321821213,-0.03704991564154625,0.6543859839439392,-1.0920120477676392,-0.007253760006278753,-0.388923317193985,0.005992469377815723,0.28683552145957947,-0.27566227316856384,-0.28491199016571045,-0.2968733608722687,-0.24099107086658478,-0.48536819219589233,0.01671735756099224,0.06176357716321945,0.09257186949253082,-0.011216072365641594,0.1961139291524887,0.001531283720396459,0.07558295875787735,0.03767234459519386,0.01839909330010414,0.08602690696716309,-0.11614809185266495,-0.007759366650134325,0.03361544758081436,-0.04119519516825676,-0.04850197583436966,0.030912654474377632,-0.05480314418673515,0.059304408729076385,-0.012375143356621265,0.024884218350052834,0.02014109678566456,-0.0023581727873533964,-0.012789477594196796,-0.06560037285089493,0.004156098701059818,8.901669207261875e-05,0.0037612570449709892,0.03574274107813835,-0.045320410281419754,-0.0026014980394393206,0.11762697994709015,0.05922267958521843,0.02990509569644928,0.09805292636156082,-0.12659592926502228,-0.02666502073407173,0.0507286936044693,0.03397751972079277,0.030519386753439903,-0.023266779258847237,0.061572249978780746,0.004513496533036232,0.007689472287893295,0.05743740126490593,0.05200942978262901,-0.041574690490961075,0.10635819286108017,-0.05103112384676933,-0.09397557377815247,-0.12907321751117706,0.030066102743148804,0.05334176495671272,0.02363498881459236,-0.35540035367012024,-0.15253587067127228,-0.17835062742233276,-0.06366938352584839,-0.172315314412117,0.10495588928461075,0.4659712314605713,-0.12265897542238235,-0.13999652862548828,-0.018610069528222084,-0.01602994091808796,0.02821856178343296,0.256560355424881,-0.06123470515012741,-0.1071091741323471,-0.07033681124448776,0.0035160344559699297,0.04291835427284241,-0.22148467600345612,-0.10591140389442444,-0.10074524581432343,-0.041027747094631195,-0.2145809680223465,-0.19610756635665894,-0.013137800619006157,-0.06869187951087952,-0.13841612637043,-0.0540473647415638,-0.08517111092805862,0.0037892209365963936,0.1491401344537735,-0.43919864296913147,-0.11606945842504501,-0.09243464469909668,-0.15260161459445953,-0.13331317901611328,0.09969991445541382,0.028857208788394928,-0.02287720888853073,0.19746434688568115,0.08939436078071594,-0.05910190939903259,-0.42931002378463745,0.00859649945050478,0.06071055307984352,0.07014016807079315,0.008189585991203785,-0.07373469322919846,0.07922210544347763,-0.0160506758838892,-0.018148327246308327,-0.04000607505440712,0.05046712979674339,0.1170235201716423,-0.023961583152413368,-0.06878514587879181,-0.03708510100841522,-0.040572892874479294,0.0025610162410885096,0.06170102208852768,-0.02586347796022892,0.03269012272357941,-0.010249271988868713,0.005453358869999647,-0.0168931744992733,-0.012269830331206322,0.004465654958039522,0.012299200519919395,0.010183705016970634,-0.006961156148463488,0.00929503794759512,0.09150023758411407,0.005840563215315342,5.037813025410287e-05,-0.029195189476013184,-0.05711640417575836,4.8145593609660864e-05,0.148042231798172,-0.027741974219679832,-0.10108014196157455,0.004228118807077408,0.0046540736220777035,0.01769271120429039,-0.030020445585250854,0.05478322505950928,-0.0017457257490605116,0.004530992358922958,0.03564131632447243,-0.04752432554960251,-0.07964825630187988,0.053937751799821854,0.09443334490060806,-0.18829351663589478,-0.027323441579937935,-0.132404625415802,-0.03124210052192211,0.21216963231563568,0.1304091364145279,0.05783667787909508,-0.006009179167449474,0.06505470722913742,-0.016018208116292953,-0.3236023783683777,0.165941521525383,0.2163054496049881,0.20955879986286163,0.2248595952987671,0.08468297123908997,-0.2189478576183319,-0.20647811889648438,-0.13165590167045593,-0.17779521644115448,-0.1263318657875061,-0.01411525346338749,0.06016666442155838,0.009004662744700909,-0.066159687936306,0.03770207613706589,-0.09519249200820923,-0.11270695179700851,-0.1209762915968895,-0.09747524559497833,-0.0700671449303627,-0.017003551125526428,-0.08700615912675858,-0.002408405067399144,-0.3559064567089081,0.38206374645233154,0.12714852392673492,0.018895160406827927,0.10780483484268188,0.040944699198007584,-0.0642591193318367,-0.2157774120569229,-0.3020498752593994,-0.17793676257133484,-0.18784238398075104,-0.10400306433439255,0.4231954514980316,-0.000294152123387903,0.0006300618988461792,0.0004305029578972608,0.00026825579698197544,0.00016243947902694345,0.00010705285239964724,0.0006054156110621989,-0.0007268072222359478,-0.0006798469694331288,-0.0004699719720520079,-2.9640172215295024e-05,0.0002957381075248122,-0.0001498271303717047,-0.001181987696327269,-0.0013591874158009887,-0.0013809697702527046,-0.0010950122959911823,-0.0013865239452570677,0.0008473169291391969,0.0009849700145423412,0.0010898568434640765,0.0011160590220242739,0.0009460237342864275,0.0014293172862380743,0.0017643470782786608,0.0012443733867257833,0.0013475969899445772,0.0013693050714209676,0.0014409755822271109,0.0015834799269214272,0.00391932250931859,0.002634766511619091,0.002811016049236059,0.0031395009718835354,0.0036402472760528326,0.004343329928815365,-0.00032970382017083466,-5.795828838017769e-05,-0.0002086995664285496,-0.00037291907938197255,-0.00033627758966758847,-0.00018070489750243723,0.0006323399138636887,0.001864540739916265,0.0018266147235408425,0.0016301210271194577,0.0011358082992956042,0.0013438729802146554,-0.0051566907204687595,0.1404748558998108,0.15056847035884857,0.08275532722473145,0.022559957578778267,-0.37452664971351624,-0.1216825470328331,-0.18418146669864655,-0.08110414445400238,-0.10602259635925293,-0.14103639125823975,0.3238690495491028,-0.1052369624376297,0.0025019992608577013,0.00028890592511743307,0.020329535007476807,0.0718579888343811,0.284004271030426,0.012461197562515736,-0.08441285043954849,-0.038891952484846115,-0.0326850600540638,-0.1566188484430313,-0.2258622944355011,-0.09681341797113419,-0.07990109920501709,-0.1940959244966507,-0.11121398955583572,-0.08915156126022339,-0.008983917534351349,-0.23740597069263458,-0.10993089526891708,-0.3335903584957123,-0.19223156571388245,-0.22858445346355438,0.29265958070755005,-0.28826501965522766,0.02889983169734478,0.03882423788309097,-0.1409720480442047,0.12265006452798843,0.08071926981210709,-0.009660765528678894,0.009400520473718643,0.018417147919535637,-0.038190703839063644,0.11727260053157806,-0.342854768037796,-0.040822505950927734,0.0051960633136332035,0.033160220831632614,0.11073539406061172,0.15754173696041107,0.10382233560085297,-0.061702385544776917,0.04692671075463295,0.03159019723534584,0.04880473390221596,0.016711505129933357,-0.19149722158908844,0.08163660019636154,-0.026529759168624878,0.07010263204574585,0.09888721257448196,0.08485063910484314,-0.1157124936580658,-0.018462464213371277,-0.0673307478427887,-0.06015852838754654,-0.017700571566820145,-0.13750289380550385,-0.13570156693458557,0.045005448162555695,-0.07286074012517929,-0.055368874222040176,-0.04356183856725693,-0.05879174545407295,0.029787477105855942,-0.034241534769535065,-0.0002158792340196669,-0.048067159950733185,-0.037060368806123734,0.0028395934496074915,0.09157146513462067,0.029073376208543777,0.0918935239315033,0.21850304305553436,0.2570393979549408,0.27203553915023804,0.10973580181598663,0.04454120621085167,-0.019653426483273506,-0.021947238594293594,-0.010664386674761772,-0.009948051534593105,0.0987626239657402,-0.04307130351662636,-0.016418153420090675,0.006903953850269318,-0.014562714844942093,0.04002838581800461,0.07020139694213867,0.1258683204650879,0.07475505769252777,0.014304486103355885,0.028294727206230164,-0.0356714203953743,-0.09286336600780487,0.040604010224342346,0.02429606392979622,-0.01973036862909794,-0.010704790242016315,-0.047494206577539444,-0.07974839955568314,0.001500979415141046,0.0015129580860957503,0.03440569341182709,0.03365175426006317,0.04183359816670418,0.05164439231157303,0.08066762238740921,0.07123157382011414,0.05618549883365631,0.06580105423927307,0.042567722499370575,0.018636375665664673,0.12155824899673462,0.08731400221586227,0.05436716601252556,0.06718118488788605,0.01249144971370697,-0.03788569197058678,-0.03228972852230072,0.0073615750297904015,-0.016078969463706017,-0.029832862317562103,0.009290582500398159,0.020811470225453377,-0.09044414013624191,-0.03378421068191528,0.021715516224503517,0.003938682842999697,0.06444857269525528,0.11419308185577393,0.0017894390039145947,0.04462771862745285,-0.07245565205812454,0.08262426406145096,-0.0039152768440544605,0.19842135906219482,-0.030124995857477188,-0.1267433613538742,0.004348946735262871,0.3351999819278717,-0.005623926408588886,-0.3673456311225891,-6.410803325707093e-05,0.6640926599502563,-0.12481506913900375,-0.00444164639338851,-0.015928607434034348,-0.3064620792865753,-0.03344106301665306,0.2894522547721863,-0.0005709708202630281,-0.16813097894191742,0.24603839218616486,0.01061626709997654,0.09117615967988968,0.18128521740436554,0.11894391477108002,-0.09743382036685944,9.483896428719163e-05,0.24262049794197083,-0.27619364857673645,0.15535810589790344,-0.1869833916425705,0.3025248646736145,0.23178866505622864,-0.17950738966464996,-6.385172309819609e-05,-0.21588344871997833,-0.2814822793006897,0.12262426316738129,0.16349993646144867,0.076729416847229,0.0767659991979599,-0.3567904233932495,0.0009674248867668211,0.25308048725128174,0.06851716339588165,0.03089563176035881,0.14967910945415497,0.3211625814437866,-0.0005753624718636274,-0.27974995970726013,0.000887626432813704,0.28154709935188293,0.16805794835090637,-0.05646105483174324,0.2477494478225708,0.1891796588897705,0.0640111044049263,-0.221125066280365,0.00028423918411135674,0.2283799946308136,0.00725936284288764,0.019042009487748146,0.011297913268208504,-0.28863972425460815,0.10029296576976776,-0.007310154847800732,-0.0016831224784255028,-0.21823635697364807,0.1654759645462036,0.1089717298746109,-0.04176551103591919,0.022058235481381416,0.14484049379825592,0.2508445978164673,-0.0002037770755123347,-0.17966775596141815,-0.08358731120824814,-0.09356968849897385,-0.1700841635465622,0.01663350872695446,-0.21114733815193176,0.15972939133644104,-0.2165370136499405,-0.2434169203042984,-0.013812948018312454,-0.42748066782951355,0.0523671954870224,0.054377734661102295,0.037146031856536865,0.04002833366394043,0.0619649700820446,0.0385211743414402,-0.059768181294202805,-0.0583934411406517,-0.07037615031003952,-0.04489662125706673,-0.020285971462726593,0.275398313999176,0.03363176807761192,0.04261424019932747,-0.027923181653022766,-0.04611523449420929,-0.10699914395809174,-0.006728603038936853,0.024269118905067444,0.03853019326925278,0.010770815424621105,0.022118285298347473,0.032804373651742935,0.042554453015327454,0.09163503348827362,0.12531845271587372,0.06372274458408356,0.09367607533931732,0.1207931712269783,0.20004071295261383,0.040795378386974335,0.007941878400743008,0.016518469899892807,0.05376218631863594,0.062134694308042526,0.19554851949214935,0.019901540130376816,0.05834946036338806,0.008867520838975906,0.07958585023880005,-0.028471941128373146,0.012695408426225185,0.0843578577041626,0.09347549825906754,0.04109833762049675,0.012055070139467716,0.09953458607196808,0.09594827890396118,-0.07583725452423096,-0.018474778160452843,-0.007468302734196186,0.043171100318431854,0.06660676747560501,-0.41212624311447144,0.004809670615941286,-0.036360811442136765,-0.12711472809314728,0.0515279583632946,-0.12755164504051208,0.35075557231903076,-0.17895786464214325,-0.2336111068725586,-0.2110031694173813,-0.06676923483610153,-0.18691693246364594,0.2062385231256485,-0.07587884366512299,-0.030171187594532967,0.1495290845632553,0.08950269222259521,0.07708059251308441,-0.32924672961235046,-0.013658973388373852,-0.00931402388960123,-0.07580022513866425,-0.011942746117711067,0.05081188678741455,-0.06038709729909897,-0.0992460772395134,-0.07602903991937637,-0.12525172531604767,-0.13784553110599518,-0.06249382346868515,-0.07308287173509598,-0.12619973719120026,-0.1756342500448227,-0.270840585231781,-0.10027841478586197,-0.16374492645263672,0.008689376525580883,-0.1550237238407135,0.00026779400650411844,-0.07149972766637802,-0.09154235571622849,-0.16285130381584167,-0.06862877309322357,0.008635654114186764,0.010708088055253029,0.007718465756624937,0.015633409842848778,0.014170495793223381,-0.03412938490509987,0.0020433771423995495,-0.004499347880482674,0.034249626100063324,0.005255833268165588,0.007279494311660528,0.04123767465353012,0.01949581876397133,0.011652637273073196,0.021411290392279625,0.03580055013298988,0.02590886317193508,0.044920921325683594,-0.001118327840231359,0.014883507043123245,-0.015351954847574234,-0.007687628734856844,-0.004417939577251673,0.026402730494737625,0.020515503361821175,0.021560657769441605,0.04171721637248993,0.010585580952465534,0.02511487901210785,0.05368751287460327,0.037464965134859085,0.025885749608278275,0.04827757179737091,0.023892100900411606,0.020927701145410538,0.0752844288945198,0.010931667871773243,0.011449955403804779,-0.009349029511213303,0.02813384309411049,-0.003447741735726595,-0.010289013385772705,0.02542746439576149,0.03376775607466698,0.022295450791716576,0.0363890677690506,0.0480746291577816,-0.01896338164806366,0.034698788076639175,0.03850173577666283,0.02759825438261032,0.04962453246116638,-0.036568522453308105,0.08439334481954575,-0.0054175350815057755,-0.011165662668645382,-0.02090415358543396,0.011934877373278141,0.12687313556671143,0.05467475950717926,0.005408817902207375,-0.02448509819805622,-0.009562828578054905,-0.0095833083614707,0.08377265930175781,-0.06994747370481491,-0.027418918907642365,-0.010717041790485382,-0.004543830640614033,-0.0390525683760643,-0.04496122524142265,-0.002549197990447283,0.07022318243980408,0.06836364418268204,0.06759583950042725,0.08399451524019241,0.11191296577453613,0.08115581423044205,0.030886180698871613,0.03399934619665146,0.03396384045481682,-0.020664513111114502,0.11197930574417114,0.10990709066390991,-0.00099488056730479,-0.010907778516411781,-0.0175660140812397,-0.017512472346425056,-0.04087314382195473,-0.0034894465934485197,0.07816433161497116,0.06898213922977448,0.04981285706162453,0.05690738558769226,-0.024673186242580414,0.11953626573085785,0.00019903089560102671,-0.03217708319425583,0.025918971747159958,-0.08547508716583252,-0.006667228415608406,0.21781562268733978,-0.0030725242104381323,-0.0117790000513196,0.18505366146564484,0.013383954763412476,0.11626381427049637,-0.23511354625225067,0.013035294599831104,0.005897060967981815,0.0731019452214241,0.19465282559394836,0.121580570936203,-0.38036781549453735,0.012776757590472698,-0.1575668901205063,-0.10493676364421844,-0.09088645875453949,-0.10148728638887405,0.20445843040943146,-0.013937246054410934,-0.15578800439834595,-0.14129751920700073,-0.13613605499267578,-0.1961241513490677,0.05199126899242401,-0.09273052960634232,0.04113195091485977,0.0033197004813700914,-0.030299870297312737,0.044239409267902374,-0.15872301161289215,-0.12929369509220123,-0.10818168520927429,0.06027272716164589,-0.06214713305234909,0.016247570514678955,0.02781098708510399,-0.07098721712827682,-0.12982510030269623,-0.09571253508329391,-0.05650828778743744,-0.1777983009815216,0.03617636859416962,-0.0021940087899565697,-0.024523328989744186,0.046891018748283386,0.084752656519413,0.011830458417534828,-0.0013555999612435699,-0.010674274526536465,0.039334241300821304,0.04291641339659691,-0.031721558421850204,0.01590653508901596,-0.04558776319026947,0.04379231110215187,0.07732492685317993,0.04175667464733124,-0.06489399820566177,0.01977561041712761,0.0030831308104097843,0.011249246075749397,-0.027654001489281654,-0.05264374241232872,-0.04334403946995735,0.023776326328516006,0.09435819834470749,-0.02771688438951969,0.017914822325110435,0.02141532674431801,-0.03364897519350052,0.007538455072790384,0.024606481194496155,0.03024943359196186,0.05941232293844223,0.02387557551264763,0.016014374792575836,0.07532386481761932,0.036887120455503464,0.06899737566709518,0.036351051181554794,0.03441528230905533,0.00853211060166359,0.03595176711678505,0.020660683512687683,-0.007352238986641169,-0.0035285388585180044,0.052605364471673965,0.07819133251905441,0.034610141068696976,0.04194194823503494,0.028783636167645454,0.03529110550880432,0.011622321791946888,-0.045510195195674896,0.031188923865556717,0.012137295678257942,0.021600909531116486,0.0015005908207967877,0.032728660851716995,0.0325440876185894,0.010755767114460468,0.07453563064336777,-0.005346877500414848,-0.037023477256298065,-0.005629666615277529,0.04663420096039772,-0.03396358713507652,0.03839906305074692,-0.00023350465926341712,0.0201772041618824,0.014924861490726471,0.04754600301384926,-0.010788747109472752,0.012022429145872593,0.020939400419592857,0.024836692959070206,0.04655245691537857,0.0813441053032875,0.04568389058113098,0.07182585448026657,0.03617653623223305,0.034970302134752274,0.06671155244112015,0.059511058032512665,0.014645902439951897,0.06823325902223587,0.018221572041511536,-0.0048096696846187115,-0.014992598444223404,0.003104773350059986,-0.06296943128108978,0.011763323098421097,0.0211641825735569,0.0408158116042614,0.05370762199163437,-0.039014872163534164,0.05117574706673622,0.02803357131779194,-0.026971960440278053,0.026483049616217613,-0.05663062632083893,-0.1598261296749115,-0.23553557693958282,0.24874956905841827,0.11702996492385864,0.1648595929145813,0.23406477272510529,0.10364668816328049,0.1197642907500267,-0.38680827617645264,-0.10108324885368347,0.026386912912130356,0.16826708614826202,0.01184565108269453,0.11161427944898605,-0.4136316776275635,-0.03168490529060364,-0.08300041407346725,-0.20110705494880676,-0.24642351269721985,-0.20690152049064636,0.28356191515922546,0.008458222262561321,0.058623794466257095,-0.01688445918262005,-0.11053680628538132,-0.14598609507083893,0.06398764997720718,-0.16113512217998505,-0.13770325481891632,-0.11491525918245316,0.022440822795033455,-0.0694180503487587,-0.15644140541553497,-0.0572284460067749,-0.0031222286634147167,0.11310567706823349,-0.08115889877080917,-0.06035425886511803,-0.12927353382110596,-0.11887788772583008,-0.042523059993982315,-0.08742079883813858,-0.09448093920946121,-0.21814271807670593,0.06663951277732849,-0.1745867282152176,0.13855895400047302,-0.04950752109289169,-0.10279973596334457,0.16483499109745026,-0.017586560919880867,-0.03894122689962387,0.014245161786675453,-0.017486289143562317,0.3068403899669647,0.0028079391922801733,-0.0009640166535973549,-0.2948325276374817,-0.006986032240092754,-0.0029079276137053967,-0.20947615802288055,0.23589956760406494,-0.15965814888477325,-0.09113407880067825,-0.07632257044315338,0.08539314568042755,0.17495885491371155,-0.03405684605240822,-0.026288378983736038,-0.4687057137489319,-0.02838587760925293,-0.035240620374679565,-0.042636580765247345,0.04977845028042793,0.0186173003166914,-0.011378702707588673,-0.06569356471300125,0.0495651513338089,0.24896171689033508,-0.026817817240953445,0.28438088297843933,-0.05251812934875488,-0.10766613483428955,0.060513678938150406,-0.08213762193918228,-0.010235300287604332,0.1128019392490387,0.03766458109021187,-0.03605806082487106,-0.08645742386579514,-0.09445487707853317,0.058590780943632126,-0.17179390788078308,-0.28182822465896606,0.08183522522449493,-0.0497114323079586,-0.0868896022439003,-0.2655007541179657,-0.09879906475543976,0.10172862559556961,-0.059158805757761,0.033619362860918045,0.05481790378689766,-0.00027265032986178994,-0.05725462734699249,-0.17941810190677643,-0.08368373662233353,0.09153258800506592,-0.1175018772482872,0.05921661853790283,-0.14738360047340393,-0.08480354398488998,0.17752119898796082,-0.03588859736919403,0.0018017677357420325,0.06418490409851074,0.397685170173645,0.4285106658935547,-0.21650998294353485,0.09549561142921448,0.010109075345098972,0.3622681200504303,0.013464853167533875,0.11120018362998962,0.2618601620197296,-0.0542166493833065,-0.22457009553909302,0.10143184661865234,-0.03974224627017975,0.07576480507850647,0.2814709544181824,0.07409278303384781,0.054549891501665115,0.011962908320128918,0.01168088149279356,0.01116303913295269,0.012452411465346813,0.009372062981128693,0.0123392753303051,0.002154232934117317,0.001237757271155715,0.0010000787442550063,5.434970807982609e-05,0.0014069706667214632,0.0016423302004113793,-0.0063824765384197235,-0.006594018545001745,-0.00501681724563241,-0.005036284681409597,-0.007364107761532068,-0.003581519238650799,0.005765901878476143,0.00632316991686821,0.005200889892876148,0.00909434910863638,0.009770887903869152,0.005606087855994701,0.0033716419711709023,0.0018058273708447814,0.0005642978940159082,-0.0002425648708594963,0.00030371505999937654,-0.00045247009256854653,0.013209923170506954,0.011907127685844898,0.012416686862707138,0.012295459397137165,0.012457812204957008,0.013338334858417511,0.0035846815444529057,0.006266904063522816,0.008037656545639038,0.008724838495254517,0.008109892718493938,0.011082351207733154,-0.0038092853501439095,-0.004773668013513088,-0.004001562017947435,-0.003936573397368193,-0.002829217351973057,-0.00411025108769536,0.12909850478172302,0.08692913502454758,0.08730274438858032,0.10930146276950836,0.12089847773313522,0.2192147821187973,-0.09466466307640076,-0.018489588052034378,-0.0156226372346282,0.011110604740679264,0.048806313425302505,-0.04509643465280533,0.027094244956970215,-0.003216381184756756,0.02726573869585991,0.02597147226333618,0.041957881301641464,-0.08336161822080612,0.002706762170419097,-0.008092505857348442,0.005752407014369965,-0.03555629029870033,-0.08140803128480911,-0.0929933488368988,0.10655923187732697,0.08618416637182236,0.09524797648191452,0.06543367356061935,0.0761793926358223,-0.012619884684681892,0.055261217057704926,0.022620683535933495,0.021847182884812355,0.08967307209968567,0.10562926530838013,-0.15576371550559998,0.004450745414942503,-0.01353090163320303,0.029185261577367783,0.0413433276116848,0.1037459522485733,0.18652763962745667,-0.03658280521631241,-0.00286339083686471,9.53976486925967e-05,-0.015642287209630013,-0.03031601570546627,0.24547043442726135,-0.01887286640703678,-0.013113261200487614,-0.08529169857501984,-0.09342736750841141,-0.14357900619506836,-0.008059951476752758,-0.018121175467967987,-0.03229586035013199,-0.03122078813612461,-0.011007159948348999,0.1460372507572174,-0.23556064069271088,0.02236752212047577,-0.004565653391182423,0.03633173927664757,0.05974516645073891,0.1444656252861023,-0.19998832046985626,0.020405594259500504,0.03399614989757538,-0.008417044766247272,-0.1095084622502327,-0.26380112767219543,0.14081238210201263,-0.04842190444469452,-0.020641524344682693,0.020943380892276764,-0.057767558842897415,-0.1613515466451645,0.008876554667949677,-0.05611741542816162,-0.027223894372582436,-0.0643998309969902,-0.015420571900904179,-0.013155593536794186,-0.14625225961208344,-0.09538555890321732,-0.07082431018352509,-0.03909013420343399,0.014154018834233284,0.18224096298217773,-0.20614637434482574,-0.018617570400238037,0.011396427638828754,0.050688933581113815,-0.028880475088953972,-0.1924402415752411,-0.16665758192539215,-0.025672949850559235,-0.003201801562681794,-0.06319621950387955,-0.05989924818277359,-0.060889605432748795,-0.12633554637432098,0.01588679850101471,0.0054619391448795795,-0.003554966766387224,-0.0606420673429966,-0.1831756830215454,0.13330310583114624,-0.0040900022722780704,0.02658306248486042,0.0013190784957259893,-0.0032488792203366756,-0.10866834223270416,-0.03231745958328247,-0.05992860347032547,-0.026471000164747238,-0.06053772196173668,-0.0033075350802391768,0.13105496764183044,-0.18857936561107635,0.011347758583724499,-0.005493626929819584,-0.0021895102690905333,0.016965294256806374,0.029894491657614708,-0.09091351926326752,-0.043138109147548676,-0.004523246083408594,-0.06455691903829575,-0.06085521727800369,-0.16389049589633942,0.009557751007378101,-0.04652474448084831,-0.004110026638954878,-0.046538058668375015,-0.054851751774549484,-0.19124644994735718,0.07874557375907898,0.0017829649150371552,0.0060291048139333725,0.007322156801819801,0.007697688415646553,-0.042638830840587616,0.02902526594698429,-0.03606262430548668,0.03431568294763565,-0.015885721892118454,-0.033159349113702774,-0.03614380955696106,0.05400572344660759,-0.0009507177164778113,0.001412928570061922,-0.017898032441735268,-0.013301283121109009,0.1010018140077591,-0.15506507456302643,-0.006195329129695892,0.00212924275547266,-0.0029798487666994333,-0.005293677095323801,0.14727917313575745,-0.09143264591693878,-0.011227048933506012,0.003804838052019477,0.004613082855939865,-0.04922519251704216,-0.1665089726448059,0.1963547319173813,-0.043420277535915375,-0.03343382477760315,0.02465178444981575,0.006145465187728405,-0.06085861101746559,0.028548533096909523,-0.03394890949130058,0.0527004636824131,-0.03333134576678276,-0.03135065361857414,0.02701612561941147,0.07040238380432129,-0.04464814066886902,-0.011746708303689957,0.0039555663242936134,-0.00752687593922019,0.11276738345623016,-0.1380392163991928,-0.023153379559516907,0.0020129806362092495,-0.008358621038496494,-0.06511514633893967,-0.04391409829258919,-0.036915749311447144,0.015984540805220604,0.02215067483484745,0.009586573578417301,0.03776748478412628,0.004767243284732103,-0.022249698638916016,0.015427946113049984,-0.007760830223560333,0.010698826052248478,0.00027191516710445285,-0.023059485480189323,0.05828193575143814,0.00846070796251297,-0.007240499369800091,0.014202374964952469,0.0034337742254137993,-0.023986533284187317,-0.023356758058071136,-0.015991516411304474,0.016185138374567032,0.002332740928977728,0.0010137205244973302,0.0406915508210659,0.055922314524650574,0.007992754690349102,0.020940791815519333,0.027756597846746445,0.03479727357625961,0.04592948406934738,0.05810113623738289,0.028231794014573097,0.022439058870077133,-0.0033925457391887903,-0.016415003687143326,-0.008130514062941074,0.08553842455148697,0.040416035801172256,0.009134011343121529,0.021934164687991142,0.021438097581267357,-0.03634916990995407,-0.0688432902097702,-0.013043832033872604,0.025448894128203392,-0.007640753872692585,0.03268642723560333,0.047593750059604645,0.02370806410908699,-0.04399384185671806,-0.011948148719966412,0.00317075802013278,-0.06658932566642761,-0.08103692531585693,-0.04337267950177193,-0.023365356028079987,-0.052465178072452545,-0.030956458300352097,-0.05088644102215767,0.0703824907541275,-0.2588604688644409,0.023407630622386932,0.03392265737056732,0.06753463298082352,0.08164247125387192,0.15510277450084686,0.0011452015023678541,-0.03879097104072571,-0.009392376989126205,-0.012997829355299473,-0.16343724727630615,-0.2353842705488205,0.0916450023651123,0.037001900374889374,-0.014430666342377663,-0.0011643551988527179,0.005117789842188358,-0.027942446991801262,0.014490150846540928,-0.03277868404984474,0.011851785704493523,-0.05282112956047058,0.014084258116781712,-0.01007429976016283,-0.12721730768680573,-0.003789447946473956,-0.01894785277545452,-0.023262031376361847,-0.025929678231477737,0.1534019261598587,-0.05066618695855141,0.008582773618400097,-0.0014871950261294842,-0.022923005744814873,-0.02590959146618843,-0.0809846892952919,-0.17623405158519745,-5.296582821756601e-05,-0.010371465235948563,0.01046698447316885,0.018660306930541992,-0.027369758114218712,-0.06596720963716507,0.00394004350528121,-0.0003436569531913847,0.015244418755173683,0.007451585028320551,-0.20645754039287567,0.0739370658993721,0.003440768923610449,-0.007658598478883505,0.01665991172194481,0.04277757555246353,-0.07102920860052109,-0.45434120297431946,-0.00031951398705132306,-0.03338506072759628,-0.003327078651636839,-0.023215793073177338,0.06005462259054184,0.3133610486984253,0.005246760789304972,0.00020440314256120473,-0.0030961160082370043,0.0617624931037426,0.08038321882486343,0.019375387579202652,-0.007900119759142399,0.005186088383197784,-0.008308961987495422,-0.024317370727658272,-0.0492163710296154,-0.3024464249610901,-0.006565870717167854,-0.017027761787176132,-0.012569603510200977,0.012271598912775517,-0.12424815446138382,-0.21630685031414032,0.006355376914143562,0.0015507243806496263,0.0028890392277389765,0.016685662791132927,-0.0009072396787814796,0.278278648853302,-0.012761072255671024,-0.3042920231819153,0.028039922937750816,0.045091696083545685,-0.0031253162305802107,-0.02635340578854084,0.15057329833507538,-0.004785833414644003,-0.0004970547743141651,0.015646932646632195,-0.09306631982326508,0.07830124348402023,-0.02687942050397396,-0.002228447003290057,-0.0009436106774955988,0.03676794096827507,0.002524727489799261,-0.1506466418504715,-0.005782684776932001,-0.3680035173892975,0.12511423230171204,0.036775361746549606,0.2711549401283264,-0.2344704270362854,0.0006696264026686549,0.30279073119163513,0.051748231053352356,0.09257961809635162,-0.000458657304989174,-0.1612149178981781,0.0007750566001050174,0.2346341460943222,-0.001092005637474358,0.004583359230309725,-0.09405200928449631,0.19261953234672546,0.03180311620235443,0.07911784201860428,-0.13232725858688354,0.21669380366802216,0.00026902765966951847,0.25169527530670166,-0.1456364393234253,-0.012061388231813908,-0.15985502302646637,0.1210893839597702,-0.07896390557289124,0.03925540670752525,-0.00018099798762705177,0.23339582979679108,0.016357263550162315,0.09504535049200058,-0.18607313930988312,0.029673222452402115,-0.13572274148464203,0.08992228657007217,-0.0011269589886069298,0.2093667984008789,-0.10966247320175171,0.056027814745903015,-0.16726382076740265,0.03395035117864609,0.015443289652466774,0.39030760526657104,0.002137497067451477,-0.19155019521713257,0.2582554817199707,0.00529828853905201,0.00395243801176548,-0.03599749132990837,-0.14827829599380493,0.3168904483318329,0.00386819988489151,-0.1431242823600769,0.19060319662094116,0.1602030247449875,-0.17516060173511505,0.006891300901770592,0.006364353932440281,-0.12534025311470032,0.17453676462173462,-0.24781173467636108,-0.2274036705493927,-0.07716944068670273,0.1364249289035797,-0.22001849114894867,-0.195912167429924,0.05082407221198082,-0.06157756596803665,-0.049609988927841187,-0.09645874053239822,-0.09845763444900513,-0.058724477887153625,-0.2910315990447998,0.05992788448929787,0.09997627139091492,0.06988915801048279,0.05733877792954445,0.07662343233823776,0.05876659229397774,-0.027041543275117874,-0.035558149218559265,-0.04862343892455101,-0.02315247245132923,-0.0737437829375267,-0.10528222471475601,-0.0407523475587368,-0.022975783795118332,-0.09554355591535568,-0.09753696620464325,0.050971951335668564,0.10738711804151535,-0.062209583818912506,-0.10057979077100754,-0.08776405453681946,-0.07698513567447662,-0.05568546801805496,0.005430766846984625,-0.06702272593975067,-0.057420603930950165,-0.013089178130030632,-0.06717434525489807,-0.07609580457210541,0.021132364869117737,-0.05051890388131142,-0.04687965288758278,-0.03363131359219551,-0.05710434168577194,-0.04783117026090622,-0.18991978466510773,-0.015309907495975494,-0.04459810629487038,-0.03981209173798561,-0.041416093707084656,0.011443929746747017,-0.359861820936203,0.015126680955290794,0.037950221449136734,0.03945678472518921,-0.010739504359662533,-0.06329593807458878,-0.03659160062670708,-0.0009168778196908534,0.010264221578836441,-0.0064476472325623035,0.0009197673061862588,0.020644301548600197,0.21476587653160095,-0.004168917890638113,0.018253212794661522,0.005428450647741556,-0.008239667862653732,-0.007943765260279179,0.16841907799243927,0.004009283147752285,0.03880644217133522,0.024656597524881363,0.02345881424844265,-0.024551549926400185,-0.22187010943889618,-0.0038578230887651443,-0.0061666835099458694,-0.005587984342128038,0.0018453766824677587,-0.010929650627076626,-0.061180803924798965,0.011982284486293793,0.007930515334010124,0.028988823294639587,0.01675187051296234,-0.003072875551879406,-0.02577994018793106,-0.002892138436436653,0.009060136042535305,0.01320548728108406,0.04464981332421303,0.03488237038254738,0.1432895064353943,-0.005590073298662901,0.0034555981401354074,-0.00804834347218275,-0.006901430897414684,0.00558615755289793,-0.02731095626950264,0.06491319090127945,0.0460221990942955,0.06545333564281464,0.07600213587284088,0.07684418559074402,-0.14747315645217896,0.0040442124009132385,0.005059823859483004,0.008940947242081165,0.022495364770293236,-0.012908759526908398,-0.09595384448766708,-0.003185620065778494,-0.01381529401987791,-0.02833646535873413,-0.027411142364144325,-0.018610501661896706,0.4955068826675415,-0.03680838271975517,-0.048237383365631104,-0.06346838921308517,-0.05696268752217293,-0.026799650862812996,0.3616291880607605,0.055949870496988297,0.03790578246116638,0.08075135946273804,0.09250252693891525,0.18799641728401184,0.6970909833908081,0.04255687817931175,0.0603620782494545,0.11556648463010788,0.07363750040531158,-0.019113963469862938,0.3265516459941864,0.003810744732618332,0.0022992687299847603,0.057988204061985016,0.057865943759679794,0.047047778964042664,0.05014481022953987,0.007962768897414207,0.010712034069001675,0.0161159485578537,-0.006972467992454767,0.015311154536902905,-0.013085782527923584,0.009560755454003811,0.00468518678098917,0.008349267765879631,0.007802641950547695,0.0067701456137001514,0.007483162451535463,0.005442208610475063,0.00213241227902472,4.239217741996981e-05,-0.002190625760704279,-0.0017774321604520082,-0.0008781905053183436,0.0038308114744722843,0.0009181617060676217,0.0056389449164271355,0.0020690420642495155,-0.00010446264786878601,0.00025002757320180535,-0.002759535564109683,0.005665327422320843,0.003953750245273113,0.008026551455259323,-0.0006373234209604561,0.007547320332378149,-0.001816987874917686,0.001469874638132751,-0.0008039652020670474,0.0006603687652386725,-0.0026205938775092363,0.00027394157950766385,0.009669439867138863,0.008217450231313705,0.007990799844264984,0.007284959312528372,0.0019996294286102057,0.008623096160590649,0.003010833403095603,-0.0017207895871251822,0.003569627646356821,0.0018618355970829725,0.004213252104818821,0.002797188237309456,-0.009942363016307354,-0.005406934302300215,-0.008276848122477531,-0.0055063399486243725,-0.0014002694515511394,-0.009442046284675598,-0.06432446092367172,-0.08929097652435303,-0.05199465900659561,-0.03929929435253143,-0.06181908771395683,-0.29216739535331726,0.01854567974805832,0.040646716952323914,0.07613226771354675,0.11495848000049591,0.06739386171102524,0.13051921129226685,-0.04068278893828392,-0.002201022580265999,-0.030943455174565315,0.037253424525260925,-0.058939408510923386,-0.09200569242238998,-0.06125922128558159,-0.0508534200489521,-0.07764054089784622,-0.0795878916978836,-0.021311486139893532,-0.11570984870195389,-0.020296219736337662,-0.05565427616238594,-0.025586072355508804,0.012524345889687538,0.04679558426141739,0.026460275053977966,-0.006594987120479345,-0.015441959723830223,-0.0009926656493917108,-0.07880520075559616,-0.11565646529197693,-0.10942148417234421,-0.00231841835193336,0.03065745159983635,0.016909891739487648,0.03281160071492195,-0.0002066885499516502,0.014521203935146332,-0.0009934678673744202,-0.009500415064394474,0.005318612791597843,-0.004327478818595409,0.027035946026444435,-0.0118045499548316,-0.029595565050840378,-0.06648647785186768,-0.0906176045536995,-0.09536019712686539,-0.022987639531493187,0.16578364372253418,-0.05715147405862808,-0.04012991860508919,-0.12436384707689285,-0.04936036840081215,-0.016090702265501022,-0.06462869048118591,0.007728311698883772,0.023551754653453827,0.004764785524457693,0.0023942063562572002,0.06662081182003021,-0.08532979339361191,-0.055295322090387344,-0.007275500800460577,-0.058010444045066833,-0.03233575448393822,0.029073011130094528,-0.11544042080640793,0.04459136351943016,0.007343911565840244,0.05636969208717346,0.014941293746232986,-0.004851503297686577,0.03395029157400131,-0.008499113842844963,-0.10668300837278366,-0.034300949424505234,-0.06803740561008453,-0.0742773488163948,-0.10931037366390228,-0.017125487327575684,-0.04512796923518181,-0.021469242870807648,-0.01802324876189232,-0.023960033431649208,0.09640704840421677,0.0028235684148967266,-0.008472803048789501,0.008178508840501308,0.005763400811702013,0.017590491101145744,-0.11370882391929626,-0.02043485827744007,-0.04773068055510521,-0.052825845777988434,-0.00025244904099963605,-0.008831620216369629,0.015651965513825417,0.03392547369003296,0.03173569217324257,0.03287873417139053,0.03619180992245674,0.032130107283592224,-0.011306362226605415,0.007267269771546125,0.006958526559174061,0.010454564355313778,0.016934921965003014,0.028693586587905884,0.00602825777605176,0.014752041548490524,0.0009245105320587754,0.02478424273431301,0.022086435928940773,0.009907713159918785,0.06687363237142563,-0.0038486451376229525,-0.006175129674375057,-0.01975204050540924,-0.027650389820337296,0.010037977248430252,-0.020818820223212242,0.0007990593439899385,-0.0351545512676239,-0.024667734280228615,0.02004738338291645,-0.012462334707379341,0.05567775294184685,0.02229267731308937,0.012979385443031788,0.022206388413906097,0.011836318299174309,0.0204591304063797,-0.03172696754336357,0.029953857883810997,0.021859997883439064,0.02669902890920639,0.04169936850667,0.0045562065206468105,0.021584587171673775,-0.07602842152118683,-0.09600120782852173,-0.16818730533123016,-0.052323002368211746,-0.05999279022216797,0.1293080598115921,-0.01640959456562996,-0.04595176503062248,-0.11202888190746307,-0.035003386437892914,-0.07958421111106873,-0.07762105762958527,0.0301678404211998,0.020115135237574577,0.027767080813646317,0.013779059052467346,0.017346110194921494,0.010373283177614212,-0.018533237278461456,0.014206326566636562,0.01581493206322193,0.011893676593899727,-0.05068211257457733,-0.08697935938835144,0.0197775699198246,0.029216302558779716,0.004591223783791065,0.04837799817323685,-0.005554300732910633,-0.11287916451692581,-0.09125594049692154,-0.10015533119440079,-0.11096338927745819,-0.06633907556533813,0.04030323028564453,-0.25569871068000793,-0.019004149362444878,-0.0005054314387962222,-0.026937438175082207,-0.023281028494238853,-0.00044196497765369713,0.05007847771048546,0.006916156969964504,0.0030350303277373314,0.02438214235007763,0.041907597333192825,-0.006019611842930317,-0.05775178223848343,0.04578792676329613,-0.06354375928640366,-0.40788108110427856,-0.006600453518331051,0.03025164268910885,0.054115381091833115,0.048155877739191055,0.11999569088220596,0.2036009430885315,0.0010909271659329534,-0.07039333134889603,0.0007010801346041262,0.04303617402911186,-0.0684196874499321,0.001527521526440978,-0.05880119279026985,0.019845711067318916,0.360970139503479,0.4622195363044739,-0.002268172800540924,0.049339424818754196,-0.07644987106323242,0.027917737141251564,-0.10681350529193878,0.13277238607406616,-0.2341519296169281,-0.14114779233932495,-0.002139428397640586,-0.17912988364696503,-0.0442054383456707,-0.026652516797184944,0.16574572026729584,0.0723133385181427,-0.19068360328674316,-0.3517877161502838,0.005713907536119223,0.2745997905731201,0.074082151055336,0.06941728293895721,-0.24736015498638153,0.09426059573888779,0.28834694623947144,-0.05880694091320038,-0.004469916690140963,0.20784859359264374,0.021492060273885727,-0.050359055399894714,-0.14829622209072113,0.24467001855373383,0.011162861250340939,-0.536612331867218,0.0009479831205680966,0.10707296431064606,-0.3203868567943573,0.03897557407617569,0.14941252768039703,-0.006176822818815708,0.15050196647644043,-0.0841926857829094,0.001436928054317832,0.18215157091617584,0.005407342221587896,0.05680146813392639,0.12489937245845795,-0.06785723567008972,-0.14878861606121063,-0.05590175464749336,0.001017837435938418,-0.08520101010799408,-0.00877400767058134,0.015181723050773144,0.1729975789785385,-0.07366211712360382,0.08724728226661682,0.3374062180519104,-0.005689971148967743,-0.08821878582239151,0.2531837821006775,-0.11063425242900848,0.21724645793437958,0.1862861067056656,-0.05009208619594574,0.33754247426986694,0.10525709390640259,0.4296097755432129,0.33775594830513,-0.19488966464996338,-0.14823494851589203,-0.01860814169049263,-0.016833091154694557,-0.028372375294566154,-0.021025149151682854,-0.03978007659316063,0.024270012974739075,0.013410355895757675,0.003393375314772129,0.009981946088373661,0.015116669237613678,-0.0009628817206248641,0.16167432069778442,-0.019004985690116882,-0.010371167212724686,-0.027646029368042946,-0.01687701605260372,-0.015540276654064655,0.13487409055233002,0.00818693544715643,-0.004664368461817503,0.0008040961110964417,0.011237806640565395,0.007410658057779074,-0.10289369523525238,-0.03578348830342293,-0.04414636641740799,-0.04631277918815613,-0.03832201287150383,-0.0686180591583252,-0.11908920854330063,0.0010883691720664501,0.0002564047754276544,0.016151273623108864,0.006090502720326185,0.010026785545051098,0.06913840025663376,0.0025610995944589376,-0.014307288452982903,-0.0029882730450481176,-0.0008001321111805737,-0.008594125509262085,-0.08142521232366562,-0.022067183628678322,-0.020098859444260597,-0.016951214522123337,-0.011837287805974483,-0.027384409680962563,-0.019458532333374023,-0.024814343079924583,-0.002281044377014041,0.05090751498937607,0.114610455930233,0.10128908604383469,-0.33807727694511414,-0.019723698496818542,-0.01838008128106594,-0.034148916602134705,-0.03452584892511368,-0.02412194199860096,-0.005897671915590763,0.0037611944135278463,0.017345134168863297,0.013207273557782173,0.07707484066486359,0.022679325193166733,0.07186967134475708,-0.048714376986026764,-0.02634131722152233,-0.04273952171206474,0.0022766804322600365,-0.10568215698003769,0.050680361688137054,0.02047356404364109,0.02181834913790226,0.055084023624658585,0.06125600263476372,0.08884141594171524,0.20060254633426666,-0.00116652250289917,-0.006875098217278719,0.01935185119509697,0.034849897027015686,0.016133809462189674,0.0379820242524147,-0.022916704416275024,-0.01521907839924097,-0.007712727412581444,0.020070454105734825,-0.02545625902712345,-0.12106851488351822,0.0069971452467143536,0.008861472830176353,0.001038735150359571,0.022271765395998955,-0.011266089044511318,-0.07612865418195724,0.006242228206247091,0.009349490515887737,0.005628910381346941,0.019917214289307594,0.013332701288163662,-0.049985121935606,-0.018641231581568718,0.014543609693646431,0.028980642557144165,0.013337572105228901,0.022357139736413956,0.06114953011274338,-0.001501290244050324,-0.0017929082969203591,0.001005501369945705,-0.013888407498598099,0.02441292814910412,-0.00757893780246377,-0.013889549300074577,-0.004949802998453379,-0.003512877505272627,0.006219217088073492,0.009919412434101105,0.0772988572716713,-0.011649354360997677,0.003145968308672309,0.005632378160953522,-0.020197173580527306,-0.03189452737569809,0.09706363081932068,0.03283818066120148,-3.5748027585214004e-05,-0.010410639457404613,-0.008934971876442432,0.014069204218685627,0.08001704514026642,-0.017615588381886482,-0.006001038942486048,-0.012394118122756481,-0.012678657658398151,-0.02338436245918274,-0.06339394301176071,0.0036917794495821,0.003410519566386938,0.013670184649527073,-0.014025796204805374,0.027416937053203583,-0.07876793295145035,-0.001968535128980875,0.016224762424826622,-0.012243582867085934,0.008430488407611847,-0.04917353019118309,-0.11799439787864685,0.003456472884863615,0.004492688458412886,-0.005937594920396805,0.013277958147227764,-0.023399870842695236,0.041871629655361176,0.01836906373500824,0.03415081650018692,0.03708576783537865,0.02640111744403839,-0.02581215277314186,-0.05928773805499077,0.006917813327163458,0.006076488643884659,0.022463878616690636,0.01566438004374504,0.04042171686887741,-0.00459289038553834,0.005736653693020344,0.024251746013760567,0.007134370040148497,-0.005344155710190535,0.01943145878612995,0.0038345414213836193,-0.003699151799082756,-0.015537766739726067,0.0012270106235519052,0.002562633715569973,-0.021950500085949898,-0.0194077268242836,0.005813048221170902,0.006526461802423,0.018930042162537575,0.010938763618469238,-0.01050648931413889,0.0014732804847881198,0.017288854345679283,0.025347962975502014,0.030423447489738464,0.028324030339717865,0.0260428786277771,-0.005618341267108917,0.020866110920906067,0.009614896960556507,0.0300692617893219,0.0549757219851017,0.12584275007247925,-0.30236539244651794,-0.0007584209088236094,0.0009703192044980824,0.010710547678172588,-0.027266530320048332,0.006027622148394585,-0.020152343437075615,0.010367927141487598,0.0030418497044593096,0.003376569366082549,0.07200530916452408,0.025403611361980438,-0.04665382206439972,0.018444858491420746,-0.02646319940686226,-0.023916488513350487,-0.04475677013397217,-0.06333761662244797,-0.07974414527416229,-0.010024141520261765,0.012496370822191238,0.02184184081852436,0.05194254592061043,0.03250065818428993,0.03257770836353302,0.0034553646109998226,-0.016148876398801804,-0.0019218785455450416,-0.010992632247507572,0.01834697835147381,0.0026562416460365057,-0.000533913669642061,-0.02957891672849655,-0.016232838854193687,-0.03588607907295227,-0.011057966388761997,-0.012827735394239426,0.008884166367352009,0.004861308261752129,0.0033386102877557278,0.025271909311413765,-0.023394614458084106,-0.03817884996533394,0.00987447053194046,0.006286920979619026,-0.0017946426523849368,-0.004759322851896286,-0.007556240074336529,0.13376060128211975,-0.013765363022685051,0.001524074818007648,-0.007506739813834429,-0.011266205459833145,0.0106890257447958,-0.25975215435028076,0.008066905662417412,0.013336144387722015,0.021975336596369743,0.020909929648041725,0.009435840882360935,0.008699169382452965,-0.0012372609926387668,-0.0007593536865897477,0.0033387921284884214,0.004462151322513819,-0.004945357795804739,-0.0007783150067552924,0.01425726804882288,0.03466477245092392,0.020240556448698044,0.023127857595682144,0.04703188315033913,0.22742553055286407,0.017213348299264908,-0.010867971926927567,-9.121960465563461e-05,0.007925871759653091,-0.025636887177824974,0.03134413808584213,0.008487475104629993,0.006983190309256315,0.016194552183151245,0.022567003965377808,0.011933554895222187,0.03902706131339073,0.013737647794187069,0.02005794644355774,0.015847517177462578,0.020516594871878624,0.025355365127325058,0.02699325792491436,0.0023456146009266376,0.003534374525770545,0.002291397424414754,-0.0011132345534861088,-0.00021099338482599705,0.001767497742548585,-0.0017209635116159916,0.000732846325263381,-0.0020939107052981853,-0.0012969155795872211,-0.0021205549128353596,0.004622600041329861,-0.003177026053890586,-0.0029006456024944782,-0.00030229275580495596,-0.0002724419755395502,-0.00029946863651275635,-0.008223564364016056,0.003612476633861661,0.0017561843851581216,0.0023694918490946293,0.00202890089713037,0.0029844576492905617,0.004275116138160229,-0.0012416709214448929,-0.001964209834113717,-0.0014412420568987727,-0.002155579626560211,-0.0019110642606392503,-0.001435203943401575,-0.0009523597545921803,0.00019007574883289635,-0.001430241740308702,0.0011090460466220975,0.0005674409912899137,0.0033162587787956,0.003655532142147422,0.0032306017819792032,0.0037755800876766443,0.005220312159508467,0.005132325924932957,0.0033382605761289597,-0.006373151671141386,-0.0057617477141320705,-0.007524011190980673,